{"learner":{"attributes":{},"feature_names":["BuildingType","PeakUsageTime_Hour","RenewableCapacity_kWh","RenewableType","EnergySource","EnergyEfficiency_kWh_per_m2","WeatherData_Temperature_C","WeatherData_SolarIntensity_Hours","WeatherData_WindSpeed_km_h"],"feature_types":["c","int","float","c","c","float","float","float","float"],"gradient_booster":{"model":{"gbtree_model_param":{"num_parallel_tree":"1","num_trees":"296"},"iteration_indptr":[0,1,2,3,4,5,6,7,8,9,10,11,12,13,14,15,16,17,18,19,20,21,22,23,24,25,26,27,28,29,30,31,32,33,34,35,36,37,38,39,40,41,42,43,44,45,46,47,48,49,50,51,52,53,54,55,56,57,58,59,60,61,62,63,64,65,66,67,68,69,70,71,72,73,74,75,76,77,78,79,80,81,82,83,84,85,86,87,88,89,90,91,92,93,94,95,96,97,98,99,100,101,102,103,104,105,106,107,108,109,110,111,112,113,114,115,116,117,118,119,120,121,122,123,124,125,126,127,128,129,130,131,132,133,134,135,136,137,138,139,140,141,142,143,144,145,146,147,148,149,150,151,152,153,154,155,156,157,158,159,160,161,162,163,164,165,166,167,168,169,170,171,172,173,174,175,176,177,178,179,180,181,182,183,184,185,186,187,188,189,190,191,192,193,194,195,196,197,198,199,200,201,202,203,204,205,206,207,208,209,210,211,212,213,214,215,216,217,218,219,220,221,222,223,224,225,226,227,228,229,230,231,232,233,234,235,236,237,238,239,240,241,242,243,244,245,246,247,248,249,250,251,252,253,254,255,256,257,258,259,260,261,262,263,264,265,266,267,268,269,270,271,272,273,274,275,276,277,278,279,280,281,282,283,284,285,286,287,288,289,290,291,292,293,294,295,296],"tree_info":[0,0,0,0,0,0,0,0,0,0,0,0,0,0,0,0,0,0,0,0,0,0,0,0,0,0,0,0,0,0,0,0,0,0,0,0,0,0,0,0,0,0,0,0,0,0,0,0,0,0,0,0,0,0,0,0,0,0,0,0,0,0,0,0,0,0,0,0,0,0,0,0,0,0,0,0,0,0,0,0,0,0,0,0,0,0,0,0,0,0,0,0,0,0,0,0,0,0,0,0,0,0,0,0,0,0,0,0,0,0,0,0,0,0,0,0,0,0,0,0,0,0,0,0,0,0,0,0,0,0,0,0,0,0,0,0,0,0,0,0,0,0,0,0,0,0,0,0,0,0,0,0,0,0,0,0,0,0,0,0,0,0,0,0,0,0,0,0,0,0,0,0,0,0,0,0,0,0,0,0,0,0,0,0,0,0,0,0,0,0,0,0,0,0,0,0,0,0,0,0,0,0,0,0,0,0,0,0,0,0,0,0,0,0,0,0,0,0,0,0,0,0,0,0,0,0,0,0,0,0,0,0,0,0,0,0,0,0,0,0,0,0,0,0,0,0,0,0,0,0,0,0,0,0,0,0,0,0,0,0,0,0,0,0,0,0,0,0,0,0,0,0,0,0,0,0,0,0,0,0,0,0,0,0,0,0,0,0,0,0,0,0,0,0,0,0],"trees":[{"base_weights":[1.3643602E-5,4.711251E2,-8.477319E1,8.5046594E2,-9.52283E1,2.5419561E1,-2.4492184E2,1.5820693E3,6.8824994E2,-5.0348858E1,-1.3782193E2,2.4954774E2,-4.34807E1,-2.142356E2,-2.6421344E2,2.6058977E3,1.3256581E3,1.0040059E3,5.347354E2,-1.0971736E2,-4.0449665E1,-1.2142545E2,-1.5293326E2,5.965768E2,1.8773872E2,1.2097807E2,-7.619228E1,-1.8736163E2,-2.2745535E0,-2.4701178E0,-2.680916E0,2.6838789E1,4.0616393E0,1.3790006E3,6.212292E2,9.484753E2,1.41471E3,6.538568E2,4.516151E2,1.1500302E1,-1.2744489E2,-1.6219664E1,-6.8495384E1,-7.236624E1,-1.3714917E2,-1.226074E2,-1.6041919E2,6.611736E2,4.8075543E2,2.826826E2,1.2615263E2,2.3053542E2,4.8150875E1,-2.315077E1,-1.1911343E2,-1.7151779E0,-1.9890645E2,1.4114354E1,5.1937428E0,8.067383E0,3.114743E0,9.624827E0,1.405509E0,1.4724812E1,1.5852895E0,6.849238E0,4.215246E0,3.4688193E-1,4.6262794E0,7.973525E-1,-6.056808E-1,-1.4055593E0,-5.594509E-1,-7.2624296E-1,6.699342E-2,2.2419399E-1,-7.633851E-1,-2.380895E-1,-8.3067626E-1,-1.433455E0,-9.3715537E-1,-5.075408E-1,-1.2919962E0,-6.9946575E-1,-1.6265776E0,7.6273184E0,5.8400826E0,2.4977558E0,5.3663354E0,3.525879E0,2.4130893E0,1.5904115E0,7.745747E-1,2.7440064E0,1.7507801E0,8.942804E-1,3.2688037E-1,9.997667E-3,-5.067201E-1,-9.565392E-1,-1.3579941E0,-5.217106E-1,-1.9940416E0],"categories":[4,9,4,9,0,1,2,3,4,5,7,8,9,10,11,0,2,5,0,1,2,3,4,5,7,8,9,10,11,0,1,2,3,5,7,8,10,11,1,6,4,6,7,8,9,10,11,0,1,3,0,2],"categories_nodes":[1,2,3,10,11,12,35,36,37,43,45],"categories_segments":[0,2,4,15,18,29,38,40,47,49,50],"categories_sizes":[2,2,11,3,11,9,2,7,2,1,2],"default_left":[0,1,1,1,0,0,0,0,0,1,1,1,1,0,0,0,0,0,0,0,0,0,0,0,0,0,0,0,0,0,0,0,0,0,0,1,1,0,0,0,0,0,0,0,0,1,0,0,0,0,0,0,0,0,0,0,0,0,0,0,0,0,0,0,0,0,0,0,0,0,0,0,0,0,0,0,0,0,0,0,0,0,0,0,0,0,0,0,0,0,0,0,0,0,0,0,0,0,0,0,0,0,0],"id":0,"left_children":[1,3,5,7,9,11,13,15,17,19,21,23,25,27,29,31,33,35,37,39,41,43,45,47,49,51,53,55,-1,-1,-1,-1,-1,57,59,61,63,65,67,69,71,73,75,77,79,81,83,85,87,89,91,93,95,97,99,-1,101,-1,-1,-1,-1,-1,-1,-1,-1,-1,-1,-1,-1,-1,-1,-1,-1,-1,-1,-1,-1,-1,-1,-1,-1,-1,-1,-1,-1,-1,-1,-1,-1,-1,-1,-1,-1,-1,-1,-1,-1,-1,-1,-1,-1,-1,-1],"loss_changes":[3.0301558E8,2.4865202E8,1.13477864E8,8.115482E7,8.819455E5,5.884674E7,1.494976E6,2.936064E7,2.7044352E7,1.29557625E5,4.03995E4,1.9106772E7,1.5691064E7,3.18688E5,4.0848E4,3.026832E6,2.97608E6,2.877424E6,3.516736E6,7.023016E4,1.3275994E5,8.1870625E4,7.5735E3,6.92168E5,4.419922E6,3.8506165E6,5.533939E6,2.8257E4,0E0,0E0,0E0,0E0,0E0,1.887824E6,2.65883E5,1.743344E6,1.217992E6,8.37272E5,1.040008E6,2.9417322E4,1.8384812E4,1.3880953E5,6.6599625E4,1.4130797E4,1.0518875E4,6.7054375E3,7.45775E3,2.12848E5,5.37112E5,7.79696E5,7.30783E5,4.2146E5,1.8344931E5,7.2385756E5,5.13112E5,0E0,3.5455E3,0E0,0E0,0E0,0E0,0E0,0E0,0E0,0E0,0E0,0E0,0E0,0E0,0E0,0E0,0E0,0E0,0E0,0E0,0E0,0E0,0E0,0E0,0E0,0E0,0E0,0E0,0E0,0E0,0E0,0E0,0E0,0E0,0E0,0E0,0E0,0E0,0E0,0E0,0E0,0E0,0E0,0E0,0E0,0E0,0E0,0E0],"parents":[2147483647,0,0,1,1,2,2,3,3,4,4,5,5,6,6,7,7,8,8,9,9,10,10,11,11,12,12,13,13,14,14,15,15,16,16,17,17,18,18,19,19,20,20,21,21,22,22,23,23,24,24,25,25,26,26,27,27,33,33,34,34,35,35,36,36,37,37,38,38,39,39,40,40,41,41,42,42,43,43,44,44,45,45,46,46,47,47,48,48,49,49,50,50,51,51,52,52,53,53,54,54,56,56],"right_children":[2,4,6,8,10,12,14,16,18,20,22,24,26,28,30,32,34,36,38,40,42,44,46,48,50,52,54,56,-1,-1,-1,-1,-1,58,60,62,64,66,68,70,72,74,76,78,80,82,84,86,88,90,92,94,96,98,100,-1,102,-1,-1,-1,-1,-1,-1,-1,-1,-1,-1,-1,-1,-1,-1,-1,-1,-1,-1,-1,-1,-1,-1,-1,-1,-1,-1,-1,-1,-1,-1,-1,-1,-1,-1,-1,-1,-1,-1,-1,-1,-1,-1,-1,-1,-1,-1],"split_conditions":[1.213E1,NaN,NaN,NaN,8.35E0,2.161E1,2.611E1,6.76E0,7.48E0,1.468E1,NaN,NaN,NaN,1.668E1,3.068E1,1.8E1,1.468948E4,1.019E1,9.37E0,5.46E0,6.98E0,9.18E0,2.55E0,1.731E1,1.583E1,3.338E1,3.442E1,1.417E1,-2.2745535E0,-2.4701178E0,-2.680916E0,2.6838789E1,4.0616393E0,1.163E1,3.825E1,NaN,NaN,NaN,1E0,3.043E1,2.965E1,3.4E0,1.912E1,NaN,1.0461E2,NaN,6.47E0,1.623E1,5E0,1.375E1,1.94E1,2.758E1,3.837E1,2.842E1,4.107E1,-1.7151779E0,9.4E-1,1.4114354E1,5.1937428E0,8.067383E0,3.114743E0,9.624827E0,1.405509E0,1.4724812E1,1.5852895E0,6.849238E0,4.215246E0,3.4688193E-1,4.6262794E0,7.973525E-1,-6.056808E-1,-1.4055593E0,-5.594509E-1,-7.2624296E-1,6.699342E-2,2.2419399E-1,-7.633851E-1,-2.380895E-1,-8.3067626E-1,-1.433455E0,-9.3715537E-1,-5.075408E-1,-1.2919962E0,-6.9946575E-1,-1.6265776E0,7.6273184E0,5.8400826E0,2.4977558E0,5.3663354E0,3.525879E0,2.4130893E0,1.5904115E0,7.745747E-1,2.7440064E0,1.7507801E0,8.942804E-1,3.2688037E-1,9.997667E-3,-5.067201E-1,-9.565392E-1,-1.3579941E0,-5.217106E-1,-1.9940416E0],"split_indices":[5,0,0,0,5,5,5,5,5,8,3,0,0,5,5,1,2,7,5,5,5,5,7,6,5,5,5,5,0,0,0,0,0,7,8,4,0,3,1,6,6,7,8,3,8,4,8,5,1,5,5,5,5,5,5,0,8,0,0,0,0,0,0,0,0,0,0,0,0,0,0,0,0,0,0,0,0,0,0,0,0,0,0,0,0,0,0,0,0,0,0,0,0,0,0,0,0,0,0,0,0,0,0],"split_type":[0,1,1,1,0,0,0,0,0,0,1,1,1,0,0,0,0,0,0,0,0,0,0,0,0,0,0,0,0,0,0,0,0,0,0,1,1,1,0,0,0,0,0,1,0,1,0,0,0,0,0,0,0,0,0,0,0,0,0,0,0,0,0,0,0,0,0,0,0,0,0,0,0,0,0,0,0,0,0,0,0,0,0,0,0,0,0,0,0,0,0,0,0,0,0,0,0,0,0,0,0,0,0],"sum_hessian":[7.585E3,1.156E3,6.429E3,6.92E2,4.64E2,3.809E3,2.62E3,1.24E2,5.68E2,2.27E2,2.37E2,8.95E2,2.914E3,1.016E3,1.604E3,2.3E1,1.01E2,1.84E2,3.84E2,3.1E1,1.96E2,1.18E2,1.19E2,1.34E2,7.61E2,4.83E2,2.431E3,3.4E2,6.76E2,3.07E2,1.297E3,2.2E1,1E0,9.3E1,8E0,1.65E2,1.9E1,1.55E2,2.29E2,4E0,2.7E1,1.06E2,9E1,3E1,8.8E1,2.7E1,9.2E1,8.3E1,5.1E1,2.98E2,4.63E2,1.92E2,2.91E2,1.088E3,1.343E3,1.5E2,1.9E2,8.9E1,4E0,4E0,4E0,1.62E2,3E0,1.8E1,1E0,1.35E2,2E1,6E0,2.23E2,2E0,2E0,2.2E1,5E0,3E1,7.6E1,7E0,8.3E1,6E0,2.4E1,7.5E1,1.3E1,3E0,2.4E1,3E0,8.9E1,3.2E1,5.1E1,1.1E1,4E1,1.08E2,1.9E2,2.75E2,1.88E2,1.05E2,8.7E1,7.8E1,2.13E2,5.8E2,5.08E2,5.61E2,7.82E2,1E0,1.89E2],"tree_param":{"num_deleted":"0","num_feature":"9","num_nodes":"103","size_leaf_vector":"1"}},{"base_weights":[1.5189517E-2,4.664953E2,-8.392222E1,8.421125E2,-9.4298676E1,2.5173904E1,-2.4247708E2,1.5667397E3,6.814437E2,-4.9858395E1,-1.364755E2,2.4708534E2,-4.30449E1,-2.1209962E2,-2.6157452E2,2.5811262E3,1.3127004E3,9.941137E2,5.2942975E2,-1.0867561E2,-4.0051243E1,-1.2024011E2,-1.5143831E2,5.9076904E2,1.8587224E2,1.19780106E2,-7.543152E1,-1.8550043E2,-2.2518418E0,-2.5173652E0,-2.6839058E0,2.658207E1,4.0413313E0,1.365416E3,6.162594E2,9.39057E2,1.4013784E3,6.4738916E2,4.471206E2,1.142363E1,-1.2624064E2,-1.606362E1,-6.7816345E1,-7.167704E1,-1.3580432E2,-1.21445595E2,-1.5884E2,6.547222E2,4.7609912E2,2.798756E2,1.248962E2,2.2825333E2,4.767355E1,-2.2919727E1,-1.1792401E2,-1.6981398E0,-1.9693054E2,1.3974779E1,5.152193E0,8.002844E0,3.0898252E0,9.52917E0,1.3949677E0,1.4585314E1,1.5773629E0,6.781249E0,4.1751013E0,3.4390858E-1,4.580223E0,7.920367E-1,-6.016429E-1,3.2917175E-2,-1.3116004E0,-7.192147E-1,6.6332266E-2,2.222324E-1,-7.5584203E-1,-2.3604867E-1,-8.2270163E-1,-1.3863444E0,-6.053145E-1,-5.037343E-1,-1.2795932E0,-6.942198E-1,-1.6104923E0,7.5533566E0,5.782805E0,2.4748595E0,5.3139806E0,3.4909434E0,2.3890848E0,1.5745649E0,7.6687E-1,2.716825E0,1.7334712E0,8.854507E-1,3.236269E-1,9.8977415E-3,-5.016629E-1,-9.469908E-1,-1.3444314E0,-5.191021E-1,-1.9742059E0],"categories":[4,9,4,9,0,1,2,3,4,5,7,8,9,10,11,0,2,5,0,1,2,3,4,5,7,8,9,10,11,0,1,2,3,5,7,8,10,11,1,6,4,6,7,8,9,10,11,0,1,2,3,6,3,0,2],"categories_nodes":[1,2,3,10,11,12,35,36,37,40,43,45],"categories_segments":[0,2,4,15,18,29,38,40,47,49,52,53],"categories_sizes":[2,2,11,3,11,9,2,7,2,3,1,2],"default_left":[0,1,1,1,0,0,0,0,0,1,1,1,1,0,0,0,0,0,0,0,0,0,0,0,0,0,0,0,0,0,0,0,0,0,0,1,1,0,0,0,1,0,0,0,0,1,0,0,0,0,0,0,0,0,0,0,0,0,0,0,0,0,0,0,0,0,0,0,0,0,0,0,0,0,0,0,0,0,0,0,0,0,0,0,0,0,0,0,0,0,0,0,0,0,0,0,0,0,0,0,0,0,0],"id":1,"left_children":[1,3,5,7,9,11,13,15,17,19,21,23,25,27,29,31,33,35,37,39,41,43,45,47,49,51,53,55,-1,-1,-1,-1,-1,57,59,61,63,65,67,69,71,73,75,77,79,81,83,85,87,89,91,93,95,97,99,-1,101,-1,-1,-1,-1,-1,-1,-1,-1,-1,-1,-1,-1,-1,-1,-1,-1,-1,-1,-1,-1,-1,-1,-1,-1,-1,-1,-1,-1,-1,-1,-1,-1,-1,-1,-1,-1,-1,-1,-1,-1,-1,-1,-1,-1,-1,-1],"loss_changes":[2.9706995E8,2.4379437E8,1.1123045E8,7.961482E7,8.6476825E5,5.7688444E7,1.46504E6,2.8823552E7,2.6518384E7,1.271645E5,3.96075E4,1.8740188E7,1.5380855E7,3.1218E5,4.0056E4,2.953024E6,2.903312E6,2.832224E6,3.44856E6,6.894759E4,1.3011631E5,8.0211625E4,7.34925E3,6.78308E5,4.332794E6,3.774788E6,5.423957E6,2.7699E4,0E0,0E0,0E0,0E0,0E0,1.84232E6,2.6164575E5,1.706672E6,1.191488E6,8.19088E5,1.019128E6,2.9026395E4,1.8273969E4,1.3613134E5,6.532647E4,1.3844297E4,1.0567875E4,6.5167188E3,7.1915E3,2.09256E5,5.25874E5,7.6447E5,7.162685E5,4.13118E5,1.7986169E5,7.094806E5,5.02902E5,0E0,3.3265E3,0E0,0E0,0E0,0E0,0E0,0E0,0E0,0E0,0E0,0E0,0E0,0E0,0E0,0E0,0E0,0E0,0E0,0E0,0E0,0E0,0E0,0E0,0E0,0E0,0E0,0E0,0E0,0E0,0E0,0E0,0E0,0E0,0E0,0E0,0E0,0E0,0E0,0E0,0E0,0E0,0E0,0E0,0E0,0E0,0E0,0E0],"parents":[2147483647,0,0,1,1,2,2,3,3,4,4,5,5,6,6,7,7,8,8,9,9,10,10,11,11,12,12,13,13,14,14,15,15,16,16,17,17,18,18,19,19,20,20,21,21,22,22,23,23,24,24,25,25,26,26,27,27,33,33,34,34,35,35,36,36,37,37,38,38,39,39,40,40,41,41,42,42,43,43,44,44,45,45,46,46,47,47,48,48,49,49,50,50,51,51,52,52,53,53,54,54,56,56],"right_children":[2,4,6,8,10,12,14,16,18,20,22,24,26,28,30,32,34,36,38,40,42,44,46,48,50,52,54,56,-1,-1,-1,-1,-1,58,60,62,64,66,68,70,72,74,76,78,80,82,84,86,88,90,92,94,96,98,100,-1,102,-1,-1,-1,-1,-1,-1,-1,-1,-1,-1,-1,-1,-1,-1,-1,-1,-1,-1,-1,-1,-1,-1,-1,-1,-1,-1,-1,-1,-1,-1,-1,-1,-1,-1,-1,-1,-1,-1,-1,-1,-1,-1,-1,-1,-1,-1],"split_conditions":[1.213E1,NaN,NaN,NaN,8.35E0,2.161E1,2.611E1,6.76E0,7.48E0,1.468E1,NaN,NaN,NaN,1.668E1,3.623E1,1.8E1,1.468948E4,1.019E1,9.37E0,5.46E0,6.98E0,9.18E0,2.55E0,1.731E1,1.583E1,3.338E1,3.442E1,1.417E1,-2.2518418E0,-2.5173652E0,-2.6839058E0,2.658207E1,4.0413313E0,1.163E1,3.825E1,NaN,NaN,NaN,1E0,3.043E1,NaN,3.4E0,1.912E1,NaN,1.103E1,NaN,6.47E0,1.623E1,5E0,1.375E1,1.94E1,2.758E1,3.837E1,2.842E1,4.107E1,-1.6981398E0,9.4E-1,1.3974779E1,5.152193E0,8.002844E0,3.0898252E0,9.52917E0,1.3949677E0,1.4585314E1,1.5773629E0,6.781249E0,4.1751013E0,3.4390858E-1,4.580223E0,7.920367E-1,-6.016429E-1,3.2917175E-2,-1.3116004E0,-7.192147E-1,6.6332266E-2,2.222324E-1,-7.5584203E-1,-2.3604867E-1,-8.2270163E-1,-1.3863444E0,-6.053145E-1,-5.037343E-1,-1.2795932E0,-6.942198E-1,-1.6104923E0,7.5533566E0,5.782805E0,2.4748595E0,5.3139806E0,3.4909434E0,2.3890848E0,1.5745649E0,7.6687E-1,2.716825E0,1.7334712E0,8.854507E-1,3.236269E-1,9.8977415E-3,-5.016629E-1,-9.469908E-1,-1.3444314E0,-5.191021E-1,-1.9742059E0],"split_indices":[5,0,0,0,5,5,5,5,5,8,3,0,0,5,5,1,2,7,5,5,5,5,7,6,5,5,5,5,0,0,0,0,0,7,8,4,0,3,1,6,4,7,8,3,7,4,8,5,1,5,5,5,5,5,5,0,8,0,0,0,0,0,0,0,0,0,0,0,0,0,0,0,0,0,0,0,0,0,0,0,0,0,0,0,0,0,0,0,0,0,0,0,0,0,0,0,0,0,0,0,0,0,0],"split_type":[0,1,1,1,0,0,0,0,0,0,1,1,1,0,0,0,0,0,0,0,0,0,0,0,0,0,0,0,0,0,0,0,0,0,0,1,1,1,0,0,1,0,0,1,0,1,0,0,0,0,0,0,0,0,0,0,0,0,0,0,0,0,0,0,0,0,0,0,0,0,0,0,0,0,0,0,0,0,0,0,0,0,0,0,0,0,0,0,0,0,0,0,0,0,0,0,0,0,0,0,0,0,0],"sum_hessian":[7.585E3,1.156E3,6.429E3,6.92E2,4.64E2,3.809E3,2.62E3,1.24E2,5.68E2,2.27E2,2.37E2,8.95E2,2.914E3,1.016E3,1.604E3,2.3E1,1.01E2,1.84E2,3.84E2,3.1E1,1.96E2,1.18E2,1.19E2,1.34E2,7.61E2,4.83E2,2.431E3,3.4E2,6.76E2,6.72E2,9.32E2,2.2E1,1E0,9.3E1,8E0,1.65E2,1.9E1,1.55E2,2.29E2,4E0,2.7E1,1.06E2,9E1,3E1,8.8E1,2.7E1,9.2E1,8.3E1,5.1E1,2.98E2,4.63E2,1.92E2,2.91E2,1.088E3,1.343E3,1.5E2,1.9E2,8.9E1,4E0,4E0,4E0,1.62E2,3E0,1.8E1,1E0,1.35E2,2E1,6E0,2.23E2,2E0,2E0,1E0,2.6E1,3E1,7.6E1,7E0,8.3E1,6E0,2.4E1,8.4E1,4E0,3E0,2.4E1,3E0,8.9E1,3.2E1,5.1E1,1.1E1,4E1,1.08E2,1.9E2,2.75E2,1.88E2,1.05E2,8.7E1,7.8E1,2.13E2,5.8E2,5.08E2,5.61E2,7.82E2,1E0,1.89E2],"tree_param":{"num_deleted":"0","num_feature":"9","num_nodes":"103","size_leaf_vector":"1"}},{"base_weights":[3.0190451E-2,4.6191193E2,-8.3079796E1,8.338411E2,-9.337593E1,2.4930622E1,-2.4005675E2,1.5515591E3,6.747048E2,-4.9369797E1,-1.3514073E2,2.4464725E2,-4.261347E1,-2.0998497E2,-2.58962E2,2.5565908E3,1.2998698E3,9.84319E2,5.2417664E2,-1.07622856E2,-3.9656765E1,-1.1906334E2,-1.4995798E2,5.850178E2,1.840243E2,1.18593994E2,-7.467835E1,-1.836577E2,-2.2293565E0,-2.4204047E0,-2.6277776E0,2.6327806E1,4.021125E0,1.3519653E3,6.1132935E2,9.2973224E2,1.3881727E3,6.409855E2,4.4267078E2,1.1347483E1,-1.2502388E2,-1.5909096E1,-6.714406E1,-7.099443E1,-1.3446864E2,-1.2029482E2,-1.5727637E2,6.4833374E2,4.714879E2,2.7709653E2,1.2365229E2,2.2599387E2,4.720095E1,-2.2690985E1,-1.1674648E2,-1.6812708E2,-1.9497429E2,1.3836584E1,5.1109753E0,7.9388213E0,3.0651064E0,9.4344635E0,1.3845056E0,1.4447136E1,1.5694761E0,6.7139354E0,4.1353383E0,3.409608E-1,4.534625E0,7.867566E-1,-5.976319E-1,-1.3801537E0,-5.4385877E-1,-7.1225464E-1,6.567743E-2,2.2028789E-1,-7.483737E-1,-2.3402536E-1,-8.1480384E-1,-1.4058337E0,-9.166956E-1,-4.999564E-1,-1.267309E0,-6.890132E-1,-1.5945663E0,7.480112E0,5.7260895E0,2.4521735E0,5.2621374E0,3.4563546E0,2.365319E0,1.5588765E0,7.592419E-1,2.689913E0,1.7163336E0,8.7670845E-1,3.2040566E-1,9.799034E-3,-4.966563E-1,-9.375377E-1,-1.3310045E0,-1.6926507E0,-8.398909E-1,-5.1650655E-1,-1.9545677E0],"categories":[4,9,4,9,0,1,2,3,4,5,7,8,9,10,11,0,2,5,0,1,2,3,4,5,7,8,9,10,11,0,1,2,3,5,7,8,10,11,1,6,4,6,7,8,9,10,11,0,1,3,0,2],"categories_nodes":[1,2,3,10,11,12,35,36,37,43,45],"categories_segments":[0,2,4,15,18,29,38,40,47,49,50],"categories_sizes":[2,2,11,3,11,9,2,7,2,1,2],"default_left":[0,1,1,1,0,0,0,0,0,1,1,1,1,0,0,0,0,0,0,0,0,0,0,0,0,0,0,0,0,0,0,0,0,0,0,1,1,0,0,0,0,0,0,0,0,1,0,0,0,0,0,0,0,0,0,0,0,0,0,0,0,0,0,0,0,0,0,0,0,0,0,0,0,0,0,0,0,0,0,0,0,0,0,0,0,0,0,0,0,0,0,0,0,0,0,0,0,0,0,0,0,0,0,0,0],"id":2,"left_children":[1,3,5,7,9,11,13,15,17,19,21,23,25,27,29,31,33,35,37,39,41,43,45,47,49,51,53,55,-1,-1,-1,-1,-1,57,59,61,63,65,67,69,71,73,75,77,79,81,83,85,87,89,91,93,95,97,99,101,103,-1,-1,-1,-1,-1,-1,-1,-1,-1,-1,-1,-1,-1,-1,-1,-1,-1,-1,-1,-1,-1,-1,-1,-1,-1,-1,-1,-1,-1,-1,-1,-1,-1,-1,-1,-1,-1,-1,-1,-1,-1,-1,-1,-1,-1,-1,-1,-1],"loss_changes":[2.9124205E8,2.390305E8,1.0902757E8,7.810416E7,8.47955E5,5.6552956E7,1.435696E6,2.8296224E7,2.6002656E7,1.2473756E5,3.8843E4,1.8380644E7,1.5076779E7,3.05808E5,4.0032E4,2.880912E6,2.832256E6,2.787712E6,3.381696E6,6.766531E4,1.2752534E5,7.8575E4,7.13075E3,6.64732E5,4.247382E6,3.700453E6,5.316163E6,2.7151E4,0E0,0E0,0E0,0E0,0E0,1.797872E6,2.5747625E5,1.670752E6,1.165544E6,8.01308E5,9.9866E5,2.8640668E4,1.8189281E4,1.3350484E5,6.407778E4,1.3563578E4,1.04045E4,6.3325938E3,6.9325E3,2.0572E5,5.14872E5,7.49542E5,7.02043E5,4.04943E5,1.7634444E5,6.9539006E5,4.92894E5,2.415E2,3.113E3,0E0,0E0,0E0,0E0,0E0,0E0,0E0,0E0,0E0,0E0,0E0,0E0,0E0,0E0,0E0,0E0,0E0,0E0,0E0,0E0,0E0,0E0,0E0,0E0,0E0,0E0,0E0,0E0,0E0,0E0,0E0,0E0,0E0,0E0,0E0,0E0,0E0,0E0,0E0,0E0,0E0,0E0,0E0,0E0,0E0,0E0,0E0,0E0],"parents":[2147483647,0,0,1,1,2,2,3,3,4,4,5,5,6,6,7,7,8,8,9,9,10,10,11,11,12,12,13,13,14,14,15,15,16,16,17,17,18,18,19,19,20,20,21,21,22,22,23,23,24,24,25,25,26,26,27,27,33,33,34,34,35,35,36,36,37,37,38,38,39,39,40,40,41,41,42,42,43,43,44,44,45,45,46,46,47,47,48,48,49,49,50,50,51,51,52,52,53,53,54,54,55,55,56,56],"right_children":[2,4,6,8,10,12,14,16,18,20,22,24,26,28,30,32,34,36,38,40,42,44,46,48,50,52,54,56,-1,-1,-1,-1,-1,58,60,62,64,66,68,70,72,74,76,78,80,82,84,86,88,90,92,94,96,98,100,102,104,-1,-1,-1,-1,-1,-1,-1,-1,-1,-1,-1,-1,-1,-1,-1,-1,-1,-1,-1,-1,-1,-1,-1,-1,-1,-1,-1,-1,-1,-1,-1,-1,-1,-1,-1,-1,-1,-1,-1,-1,-1,-1,-1,-1,-1,-1,-1,-1],"split_conditions":[1.213E1,NaN,NaN,NaN,8.35E0,2.161E1,2.611E1,6.76E0,7.48E0,1.468E1,NaN,NaN,NaN,1.668E1,3.068E1,1.8E1,1.468948E4,1.019E1,9.37E0,5.46E0,6.98E0,9.18E0,2.55E0,1.731E1,1.583E1,3.338E1,3.442E1,1.417E1,-2.2293565E0,-2.4204047E0,-2.6277776E0,2.6327806E1,4.021125E0,1.163E1,3.825E1,NaN,NaN,NaN,1E0,3.043E1,2.965E1,3.4E0,1.912E1,NaN,1.0461E2,NaN,6.47E0,1.623E1,5E0,1.375E1,1.94E1,2.758E1,3.837E1,2.842E1,4.107E1,1.875534E4,9.4E-1,1.3836584E1,5.1109753E0,7.9388213E0,3.0651064E0,9.4344635E0,1.3845056E0,1.4447136E1,1.5694761E0,6.7139354E0,4.1353383E0,3.409608E-1,4.534625E0,7.867566E-1,-5.976319E-1,-1.3801537E0,-5.4385877E-1,-7.1225464E-1,6.567743E-2,2.2028789E-1,-7.483737E-1,-2.3402536E-1,-8.1480384E-1,-1.4058337E0,-9.166956E-1,-4.999564E-1,-1.267309E0,-6.890132E-1,-1.5945663E0,7.480112E0,5.7260895E0,2.4521735E0,5.2621374E0,3.4563546E0,2.365319E0,1.5588765E0,7.592419E-1,2.689913E0,1.7163336E0,8.7670845E-1,3.2040566E-1,9.799034E-3,-4.966563E-1,-9.375377E-1,-1.3310045E0,-1.6926507E0,-8.398909E-1,-5.1650655E-1,-1.9545677E0],"split_indices":[5,0,0,0,5,5,5,5,5,8,3,0,0,5,5,1,2,7,5,5,5,5,7,6,5,5,5,5,0,0,0,0,0,7,8,4,0,3,1,6,6,7,8,3,8,4,8,5,1,5,5,5,5,5,5,2,8,0,0,0,0,0,0,0,0,0,0,0,0,0,0,0,0,0,0,0,0,0,0,0,0,0,0,0,0,0,0,0,0,0,0,0,0,0,0,0,0,0,0,0,0,0,0,0,0],"split_type":[0,1,1,1,0,0,0,0,0,0,1,1,1,0,0,0,0,0,0,0,0,0,0,0,0,0,0,0,0,0,0,0,0,0,0,1,1,1,0,0,0,0,0,1,0,1,0,0,0,0,0,0,0,0,0,0,0,0,0,0,0,0,0,0,0,0,0,0,0,0,0,0,0,0,0,0,0,0,0,0,0,0,0,0,0,0,0,0,0,0,0,0,0,0,0,0,0,0,0,0,0,0,0,0,0],"sum_hessian":[7.585E3,1.156E3,6.429E3,6.92E2,4.64E2,3.809E3,2.62E3,1.24E2,5.68E2,2.27E2,2.37E2,8.95E2,2.914E3,1.016E3,1.604E3,2.3E1,1.01E2,1.84E2,3.84E2,3.1E1,1.96E2,1.18E2,1.19E2,1.34E2,7.61E2,4.83E2,2.431E3,3.4E2,6.76E2,3.07E2,1.297E3,2.2E1,1E0,9.3E1,8E0,1.65E2,1.9E1,1.55E2,2.29E2,4E0,2.7E1,1.06E2,9E1,3E1,8.8E1,2.7E1,9.2E1,8.3E1,5.1E1,2.98E2,4.63E2,1.92E2,2.91E2,1.088E3,1.343E3,1.5E2,1.9E2,8.9E1,4E0,4E0,4E0,1.62E2,3E0,1.8E1,1E0,1.35E2,2E1,6E0,2.23E2,2E0,2E0,2.2E1,5E0,3E1,7.6E1,7E0,8.3E1,6E0,2.4E1,7.5E1,1.3E1,3E0,2.4E1,3E0,8.9E1,3.2E1,5.1E1,1.1E1,4E1,1.08E2,1.9E2,2.75E2,1.88E2,1.05E2,8.7E1,7.8E1,2.13E2,5.8E2,5.08E2,5.61E2,7.82E2,1.47E2,3E0,1E0,1.89E2],"tree_param":{"num_deleted":"0","num_feature":"9","num_nodes":"105","size_leaf_vector":"1"}},{"base_weights":[4.467218E-2,4.573728E2,-8.224595E1,8.256512E2,-9.246439E1,2.4689686E1,-2.3766087E2,1.536526E3,6.6803253E2,-4.8888855E1,-1.3382051E2,2.422332E2,-4.2186363E1,-2.0789223E2,-2.5637555E2,2.5322896E3,1.2871647E3,9.746208E2,5.1897577E2,-1.0660084E2,-3.9266155E1,-1.1790105E2,-1.4849214E2,5.7932263E2,1.8219475E2,1.1741963E2,-7.393271E1,-1.818358E2,-2.2070959E0,-2.466936E0,-2.6308458E0,2.6075974E1,4.001019E0,1.3386473E3,6.0643866E2,9.2050006E2,1.3750919E3,6.346452E2,4.3826526E2,1.1271835E1,-1.23842354E2,-1.5756046E1,-6.647841E1,-7.031833E1,-1.3315007E2,-1.1915499E2,-1.5572815E2,6.4309735E2,4.6851837E2,2.7434503E2,1.2242076E2,2.2375674E2,4.673304E1,-2.2464525E1,-1.1558071E2,-1.6646257E2,-1.9303749E2,1.3699756E1,5.0700874E0,7.8753104E0,3.0405855E0,1.1265156E1,8.439148E0,1.4310269E1,1.5616287E0,6.6472907E0,4.0959544E0,3.380382E-1,4.4894814E0,7.815116E-1,-5.936477E-1,3.965332E-2,-1.2872283E0,-7.053619E-1,6.502921E-2,2.1836048E-1,-7.40979E-1,-2.320193E-1,-8.0698186E-1,-1.3593842E0,-5.9118193E-1,-4.962066E-1,-1.2551429E0,-6.838455E-1,-1.5787977E0,6.559769E0,8.098284E-1,5.3391285E0,3.23396E0,3.4221082E0,2.3417895E0,1.5433443E0,7.516896E-1,2.6632679E0,1.6993654E0,8.6805224E-1,3.1721658E-1,9.701242E-3,-4.9169964E-1,-9.2817914E-1,-1.3177115E0,-1.6758385E0,-8.335916E-1,-5.13924E-1,-1.9351251E0],"categories":[4,9,4,9,0,1,2,3,4,5,7,8,9,10,11,0,2,5,0,1,2,3,4,5,7,8,9,10,11,0,1,2,3,5,7,8,10,11,1,3,5,4,6,7,8,9,10,11,0,1,2,3,6,3,0,2],"categories_nodes":[1,2,3,10,11,12,35,36,37,40,43,45],"categories_segments":[0,2,4,15,18,29,38,41,48,50,53,54],"categories_sizes":[2,2,11,3,11,9,3,7,2,3,1,2],"default_left":[0,1,1,1,0,0,0,0,0,1,1,1,1,0,0,0,0,0,0,0,0,0,0,0,0,0,0,0,0,0,0,0,0,0,0,0,1,0,0,0,1,0,0,0,0,1,0,1,0,0,0,0,0,0,0,0,0,0,0,0,0,0,0,0,0,0,0,0,0,0,0,0,0,0,0,0,0,0,0,0,0,0,0,0,0,0,0,0,0,0,0,0,0,0,0,0,0,0,0,0,0,0,0,0,0],"id":3,"left_children":[1,3,5,7,9,11,13,15,17,19,21,23,25,27,29,31,33,35,37,39,41,43,45,47,49,51,53,55,-1,-1,-1,-1,-1,57,59,61,63,65,67,69,71,73,75,77,79,81,83,85,87,89,91,93,95,97,99,101,103,-1,-1,-1,-1,-1,-1,-1,-1,-1,-1,-1,-1,-1,-1,-1,-1,-1,-1,-1,-1,-1,-1,-1,-1,-1,-1,-1,-1,-1,-1,-1,-1,-1,-1,-1,-1,-1,-1,-1,-1,-1,-1,-1,-1,-1,-1,-1,-1],"loss_changes":[2.8552774E8,2.3436091E8,1.0686855E8,7.662224E7,8.314415E5,5.5439816E7,1.406896E6,2.7778592E7,2.549696E7,1.22432875E5,3.8081E4,1.8027996E7,1.4778714E7,2.99516E5,3.9352E4,2.810384E6,2.762848E6,2.743872E6,3.31612E6,6.642969E4,1.2498594E5,7.698225E4,6.91825E3,6.52672E5,4.163654E6,3.627581E6,5.210512E6,2.6589E4,0E0,0E0,0E0,0E0,0E0,1.75448E6,2.5337275E5,1.668432E6,1.140144E6,7.83904E5,9.78616E5,2.8260072E4,1.7975781E4,1.30929086E5,6.2852875E4,1.3288578E4,1.03355E4,6.1531875E3,6.68075E3,5.47784E5,3.30315E5,7.34906E5,6.881015E5,3.96929E5,1.7289575E5,6.8157925E5,4.83084E5,1.01E2,2.9065E3,0E0,0E0,0E0,0E0,0E0,0E0,0E0,0E0,0E0,0E0,0E0,0E0,0E0,0E0,0E0,0E0,0E0,0E0,0E0,0E0,0E0,0E0,0E0,0E0,0E0,0E0,0E0,0E0,0E0,0E0,0E0,0E0,0E0,0E0,0E0,0E0,0E0,0E0,0E0,0E0,0E0,0E0,0E0,0E0,0E0,0E0,0E0,0E0],"parents":[2147483647,0,0,1,1,2,2,3,3,4,4,5,5,6,6,7,7,8,8,9,9,10,10,11,11,12,12,13,13,14,14,15,15,16,16,17,17,18,18,19,19,20,20,21,21,22,22,23,23,24,24,25,25,26,26,27,27,33,33,34,34,35,35,36,36,37,37,38,38,39,39,40,40,41,41,42,42,43,43,44,44,45,45,46,46,47,47,48,48,49,49,50,50,51,51,52,52,53,53,54,54,55,55,56,56],"right_children":[2,4,6,8,10,12,14,16,18,20,22,24,26,28,30,32,34,36,38,40,42,44,46,48,50,52,54,56,-1,-1,-1,-1,-1,58,60,62,64,66,68,70,72,74,76,78,80,82,84,86,88,90,92,94,96,98,100,102,104,-1,-1,-1,-1,-1,-1,-1,-1,-1,-1,-1,-1,-1,-1,-1,-1,-1,-1,-1,-1,-1,-1,-1,-1,-1,-1,-1,-1,-1,-1,-1,-1,-1,-1,-1,-1,-1,-1,-1,-1,-1,-1,-1,-1,-1,-1,-1,-1],"split_conditions":[1.213E1,NaN,NaN,NaN,8.35E0,2.161E1,2.611E1,6.76E0,7.48E0,1.468E1,NaN,NaN,NaN,1.668E1,3.623E1,1.8E1,1.468948E4,1.019E1,9.37E0,5.46E0,6.98E0,9.18E0,2.55E0,1.803E1,1.583E1,3.338E1,3.442E1,1.417E1,-2.2070959E0,-2.466936E0,-2.6308458E0,2.6075974E1,4.001019E0,1.163E1,3.825E1,NaN,NaN,NaN,1E0,3.043E1,NaN,3.4E0,1.912E1,NaN,1.103E1,NaN,6.47E0,1.1624E2,1.755E1,1.375E1,1.94E1,2.758E1,3.837E1,2.842E1,4.107E1,1.875534E4,9.4E-1,1.3699756E1,5.0700874E0,7.8753104E0,3.0405855E0,1.1265156E1,8.439148E0,1.4310269E1,1.5616287E0,6.6472907E0,4.0959544E0,3.380382E-1,4.4894814E0,7.815116E-1,-5.936477E-1,3.965332E-2,-1.2872283E0,-7.053619E-1,6.502921E-2,2.1836048E-1,-7.40979E-1,-2.320193E-1,-8.0698186E-1,-1.3593842E0,-5.9118193E-1,-4.962066E-1,-1.2551429E0,-6.838455E-1,-1.5787977E0,6.559769E0,8.098284E-1,5.3391285E0,3.23396E0,3.4221082E0,2.3417895E0,1.5433443E0,7.516896E-1,2.6632679E0,1.6993654E0,8.6805224E-1,3.1721658E-1,9.701242E-3,-4.9169964E-1,-9.2817914E-1,-1.3177115E0,-1.6758385E0,-8.335916E-1,-5.13924E-1,-1.9351251E0],"split_indices":[5,0,0,0,5,5,5,5,5,8,3,0,0,5,5,1,2,7,5,5,5,5,7,5,5,5,5,5,0,0,0,0,0,7,8,3,0,3,1,6,4,7,8,3,7,4,8,8,6,5,5,5,5,5,5,2,8,0,0,0,0,0,0,0,0,0,0,0,0,0,0,0,0,0,0,0,0,0,0,0,0,0,0,0,0,0,0,0,0,0,0,0,0,0,0,0,0,0,0,0,0,0,0,0,0],"split_type":[0,1,1,1,0,0,0,0,0,0,1,1,1,0,0,0,0,0,0,0,0,0,0,0,0,0,0,0,0,0,0,0,0,0,0,1,1,1,0,0,1,0,0,1,0,1,0,0,0,0,0,0,0,0,0,0,0,0,0,0,0,0,0,0,0,0,0,0,0,0,0,0,0,0,0,0,0,0,0,0,0,0,0,0,0,0,0,0,0,0,0,0,0,0,0,0,0,0,0,0,0,0,0,0,0],"sum_hessian":[7.585E3,1.156E3,6.429E3,6.92E2,4.64E2,3.809E3,2.62E3,1.24E2,5.68E2,2.27E2,2.37E2,8.95E2,2.914E3,1.016E3,1.604E3,2.3E1,1.01E2,1.84E2,3.84E2,3.1E1,1.96E2,1.18E2,1.19E2,1.34E2,7.61E2,4.83E2,2.431E3,3.4E2,6.76E2,6.72E2,9.32E2,2.2E1,1E0,9.3E1,8E0,1.65E2,1.9E1,1.55E2,2.29E2,4E0,2.7E1,1.06E2,9E1,3E1,8.8E1,2.7E1,9.2E1,8.2E1,5.2E1,2.98E2,4.63E2,1.92E2,2.91E2,1.088E3,1.343E3,1.5E2,1.9E2,8.9E1,4E0,4E0,4E0,4.1E1,1.24E2,1.8E1,1E0,1.35E2,2E1,6E0,2.23E2,2E0,2E0,1E0,2.6E1,3E1,7.6E1,7E0,8.3E1,6E0,2.4E1,8.4E1,4E0,3E0,2.4E1,3E0,8.9E1,8E1,2E0,3.4E1,1.8E1,1.08E2,1.9E2,2.75E2,1.88E2,1.05E2,8.7E1,7.8E1,2.13E2,5.8E2,5.08E2,5.61E2,7.82E2,1.47E2,3E0,1E0,1.89E2],"tree_param":{"num_deleted":"0","num_feature":"9","num_nodes":"105","size_leaf_vector":"1"}},{"base_weights":[5.9551287E-2,4.5288693E2,-8.142122E1,8.175547E2,-9.155959E1,2.4449831E1,-2.3528893E2,1.5216388E3,6.614421E2,-4.840972E1,-1.3251173E2,2.3983766E2,-4.1763527E1,-2.0582036E2,-2.5381494E2,2.5082197E3,1.274584E3,9.650669E2,5.138264E2,-1.0556794E2,-3.8879402E1,-1.1674716E2,-1.4704068E2,5.7364746E2,1.8038338E2,1.1625689E2,-7.3194496E1,-1.8003198E2,-2.1850574E0,-2.3716898E0,-2.5756927E0,2.5826551E1,3.981014E0,1.3254604E3,6.015872E2,9.1141376E2,1.3621345E3,6.283676E2,4.339036E2,1.1196689E1,-1.2264848E2,-1.5604475E1,-6.581938E1,-6.964867E1,-1.318405E2,-1.1802598E2,-1.541952E2,6.360055E2,4.618836E2,2.7162085E2,1.21201515E2,2.215418E2,4.6269764E1,-2.2240326E1,-1.1442657E2,-1.6481456E0,-1.9111995E2,1.356428E1,5.0295267E0,7.8123083E0,3.0162613E0,9.825167E0,7.104828E0,7.095892E0,1.5323437E1,6.581306E0,4.0569453E0,3.3514068E-1,4.444787E0,7.763015E-1,-5.8968997E-1,-1.3552164E0,-5.2859974E-1,-6.985359E-1,6.438734E-2,2.1644989E-1,-7.3365754E-1,-2.300305E-1,-7.992348E-1,-1.3787477E0,-8.966582E-1,-4.92485E-1,-1.2430933E0,-6.787167E-1,-1.5631852E0,7.343968E0,5.61334E0,2.3909845E0,5.1582355E0,3.1767893E0,2.14083E0,1.5279667E0,7.4421257E-1,2.6368861E0,1.6825646E0,8.594818E-1,3.1405908E-1,9.604363E-3,-4.867923E-1,-9.189137E-1,-1.304551E0,-5.1135445E-1,-1.9158757E0],"categories":[4,9,4,9,0,1,2,3,4,5,7,8,9,10,11,0,2,5,0,1,2,3,4,5,7,8,9,10,11,0,1,2,3,5,7,8,10,11,0,1,5,6,0,1,3,0,2],"categories_nodes":[1,2,3,10,11,12,35,37,43,45],"categories_segments":[0,2,4,15,18,29,38,42,44,45],"categories_sizes":[2,2,11,3,11,9,4,2,1,2],"default_left":[0,1,1,1,0,0,0,0,0,1,1,1,1,0,0,0,0,0,0,0,0,0,0,0,0,0,0,0,0,0,0,0,0,0,0,1,0,0,0,0,0,0,0,0,0,1,0,0,0,0,0,0,0,0,0,0,0,0,0,0,0,0,0,0,0,0,0,0,0,0,0,0,0,0,0,0,0,0,0,0,0,0,0,0,0,0,0,0,0,0,0,0,0,0,0,0,0,0,0,0,0,0,0],"id":4,"left_children":[1,3,5,7,9,11,13,15,17,19,21,23,25,27,29,31,33,35,37,39,41,43,45,47,49,51,53,55,-1,-1,-1,-1,-1,57,59,61,63,65,67,69,71,73,75,77,79,81,83,85,87,89,91,93,95,97,99,-1,101,-1,-1,-1,-1,-1,-1,-1,-1,-1,-1,-1,-1,-1,-1,-1,-1,-1,-1,-1,-1,-1,-1,-1,-1,-1,-1,-1,-1,-1,-1,-1,-1,-1,-1,-1,-1,-1,-1,-1,-1,-1,-1,-1,-1,-1,-1],"loss_changes":[2.7993542E8,2.2978803E8,1.0475133E8,7.51656E7,8.15277E5,5.434653E7,1.378656E6,2.7270496E7,2.5006576E7,1.2009544E5,3.73455E4,1.7678916E7,1.4486544E7,2.93356E5,3.9224E4,2.741488E6,2.695056E6,2.69976E6,3.251816E6,6.5194188E4,1.2249706E5,7.5411375E4,6.71125E3,6.47104E5,4.081576E6,3.556146E6,5.106957E6,2.6038E4,0E0,0E0,0E0,0E0,0E0,1.712064E6,2.4933525E5,1.673536E6,1.134048E6,7.66872E5,9.58964E5,2.7884518E4,1.7991469E4,1.2840299E5,6.16515E4,1.3019047E4,1.028725E4,5.97825E3,6.43675E3,2.04908E5,5.01553E5,7.24364E5,6.74435E5,3.89073E5,1.6951475E5,6.680423E5,4.73472E5,0E0,2.7055E3,0E0,0E0,0E0,0E0,0E0,0E0,0E0,0E0,0E0,0E0,0E0,0E0,0E0,0E0,0E0,0E0,0E0,0E0,0E0,0E0,0E0,0E0,0E0,0E0,0E0,0E0,0E0,0E0,0E0,0E0,0E0,0E0,0E0,0E0,0E0,0E0,0E0,0E0,0E0,0E0,0E0,0E0,0E0,0E0,0E0,0E0],"parents":[2147483647,0,0,1,1,2,2,3,3,4,4,5,5,6,6,7,7,8,8,9,9,10,10,11,11,12,12,13,13,14,14,15,15,16,16,17,17,18,18,19,19,20,20,21,21,22,22,23,23,24,24,25,25,26,26,27,27,33,33,34,34,35,35,36,36,37,37,38,38,39,39,40,40,41,41,42,42,43,43,44,44,45,45,46,46,47,47,48,48,49,49,50,50,51,51,52,52,53,53,54,54,56,56],"right_children":[2,4,6,8,10,12,14,16,18,20,22,24,26,28,30,32,34,36,38,40,42,44,46,48,50,52,54,56,-1,-1,-1,-1,-1,58,60,62,64,66,68,70,72,74,76,78,80,82,84,86,88,90,92,94,96,98,100,-1,102,-1,-1,-1,-1,-1,-1,-1,-1,-1,-1,-1,-1,-1,-1,-1,-1,-1,-1,-1,-1,-1,-1,-1,-1,-1,-1,-1,-1,-1,-1,-1,-1,-1,-1,-1,-1,-1,-1,-1,-1,-1,-1,-1,-1,-1,-1],"split_conditions":[1.213E1,NaN,NaN,NaN,8.35E0,2.161E1,2.611E1,6.76E0,7.48E0,1.468E1,NaN,NaN,NaN,1.668E1,3.068E1,1.8E1,1.468948E4,1.019E1,9.37E0,5.46E0,6.98E0,9.18E0,2.55E0,1.731E1,1.583E1,3.338E1,3.442E1,1.417E1,-2.1850574E0,-2.3716898E0,-2.5756927E0,2.5826551E1,3.981014E0,1.163E1,3.825E1,NaN,-1.43E0,NaN,1E0,3.043E1,2.965E1,3.4E0,1.912E1,NaN,1.0461E2,NaN,6.47E0,1.623E1,5E0,1.431E1,1.94E1,2.758E1,3.837E1,2.842E1,4.107E1,-1.6481456E0,9.4E-1,1.356428E1,5.0295267E0,7.8123083E0,3.0162613E0,9.825167E0,7.104828E0,7.095892E0,1.5323437E1,6.581306E0,4.0569453E0,3.3514068E-1,4.444787E0,7.763015E-1,-5.8968997E-1,-1.3552164E0,-5.2859974E-1,-6.985359E-1,6.438734E-2,2.1644989E-1,-7.3365754E-1,-2.300305E-1,-7.992348E-1,-1.3787477E0,-8.966582E-1,-4.92485E-1,-1.2430933E0,-6.787167E-1,-1.5631852E0,7.343968E0,5.61334E0,2.3909845E0,5.1582355E0,3.1767893E0,2.14083E0,1.5279667E0,7.4421257E-1,2.6368861E0,1.6825646E0,8.594818E-1,3.1405908E-1,9.604363E-3,-4.867923E-1,-9.189137E-1,-1.304551E0,-5.1135445E-1,-1.9158757E0],"split_indices":[5,0,0,0,5,5,5,5,5,8,3,0,0,5,5,1,2,7,5,5,5,5,7,6,5,5,5,5,0,0,0,0,0,7,8,4,6,3,1,6,6,7,8,3,8,4,8,5,1,5,5,5,5,5,5,0,8,0,0,0,0,0,0,0,0,0,0,0,0,0,0,0,0,0,0,0,0,0,0,0,0,0,0,0,0,0,0,0,0,0,0,0,0,0,0,0,0,0,0,0,0,0,0],"split_type":[0,1,1,1,0,0,0,0,0,0,1,1,1,0,0,0,0,0,0,0,0,0,0,0,0,0,0,0,0,0,0,0,0,0,0,1,0,1,0,0,0,0,0,1,0,1,0,0,0,0,0,0,0,0,0,0,0,0,0,0,0,0,0,0,0,0,0,0,0,0,0,0,0,0,0,0,0,0,0,0,0,0,0,0,0,0,0,0,0,0,0,0,0,0,0,0,0,0,0,0,0,0,0],"sum_hessian":[7.585E3,1.156E3,6.429E3,6.92E2,4.64E2,3.809E3,2.62E3,1.24E2,5.68E2,2.27E2,2.37E2,8.95E2,2.914E3,1.016E3,1.604E3,2.3E1,1.01E2,1.84E2,3.84E2,3.1E1,1.96E2,1.18E2,1.19E2,1.34E2,7.61E2,4.83E2,2.431E3,3.4E2,6.76E2,3.07E2,1.297E3,2.2E1,1E0,9.3E1,8E0,1.65E2,1.9E1,1.55E2,2.29E2,4E0,2.7E1,1.06E2,9E1,3E1,8.8E1,2.7E1,9.2E1,8.3E1,5.1E1,2.98E2,4.63E2,1.92E2,2.91E2,1.088E3,1.343E3,1.5E2,1.9E2,8.9E1,4E0,4E0,4E0,1.19E2,4.6E1,5E0,1.4E1,1.35E2,2E1,6E0,2.23E2,2E0,2E0,2.2E1,5E0,3E1,7.6E1,7E0,8.3E1,6E0,2.4E1,7.5E1,1.3E1,3E0,2.4E1,3E0,8.9E1,3.2E1,5.1E1,1.1E1,4E1,1.63E2,1.35E2,2.75E2,1.88E2,1.05E2,8.7E1,7.8E1,2.13E2,5.8E2,5.08E2,5.61E2,7.82E2,1E0,1.89E2],"tree_param":{"num_deleted":"0","num_feature":"9","num_nodes":"103","size_leaf_vector":"1"}},{"base_weights":[7.5241946E-2,4.4844785E2,-8.060394E1,8.0954364E2,-9.066579E1,2.4213444E1,-2.3294032E2,1.5068962E3,6.5492395E2,-4.7938126E1,-1.3121722E2,2.3747064E2,-4.1344933E1,-2.0376831E2,-2.5127988E2,2.4843796E3,1.2621267E3,9.556289E2,5.087282E2,-1.045653E2,-3.849646E1,-1.1560746E2,-1.4560342E2,5.680629E2,1.7858951E2,1.1510568E2,-7.246366E1,-1.7824362E2,-2.1632392E0,-2.4175153E0,-2.5788362E0,2.5579515E1,3.961109E0,1.3124037E3,5.967745E2,9.024016E2,1.3496342E3,6.2215216E2,4.2958533E2,1.1122043E1,-1.2148927E2,-1.5454357E1,-6.5166885E1,-6.898538E1,-1.3054765E2,-1.1690769E2,-1.5267737E2,6.308844E2,4.5896393E2,2.6892242E2,1.1999441E2,2.1934875E2,4.581109E1,-2.2018368E1,-1.1328395E2,-1.6317734E2,-1.8922147E2,1.3430145E1,4.9892907E0,7.7498093E0,2.992131E0,1.1067047E1,8.265366E0,7.0367603E0,1.5180417E1,6.515977E0,4.018307E0,3.3226803E-1,4.4005375E0,7.711261E-1,-5.857587E-1,4.623123E-2,-1.2633133E0,-6.799142E-1,6.869858E-2,2.1455584E-1,-7.264084E-1,-2.2805874E-1,-7.915623E-1,-1.3329489E0,-5.7735074E-1,-4.8879132E-1,-1.2311596E0,-3.1198433E-1,-1.5365868E0,6.435756E0,7.792655E-1,5.232863E0,3.1631937E0,3.3567245E0,2.2942147E0,1.5127426E0,7.368099E-1,2.6107662E0,1.6659303E0,8.509959E-1,3.109332E-1,9.508398E-3,-4.81934E-1,-9.09741E-1,-1.2915221E0,-1.6428233E0,-8.149787E-1,-5.0879765E-1,-1.8968179E0],"categories":[4,9,4,9,0,1,2,3,4,5,7,8,9,10,11,0,2,5,0,1,2,3,4,5,7,8,9,10,11,0,1,2,3,5,7,8,10,11,1,3,5,0,1,2,3,6,3,0,2],"categories_nodes":[1,2,3,10,11,12,35,37,40,43,45],"categories_segments":[0,2,4,15,18,29,38,41,43,46,47],"categories_sizes":[2,2,11,3,11,9,3,2,3,1,2],"default_left":[0,1,1,1,0,0,0,0,0,1,1,1,1,0,0,0,0,0,0,0,0,0,0,0,0,0,0,0,0,0,0,0,0,0,0,0,0,0,0,0,1,0,0,0,0,1,0,1,0,0,0,0,0,0,0,0,0,0,0,0,0,0,0,0,0,0,0,0,0,0,0,0,0,0,0,0,0,0,0,0,0,0,0,0,0,0,0,0,0,0,0,0,0,0,0,0,0,0,0,0,0,0,0,0,0],"id":5,"left_children":[1,3,5,7,9,11,13,15,17,19,21,23,25,27,29,31,33,35,37,39,41,43,45,47,49,51,53,55,-1,-1,-1,-1,-1,57,59,61,63,65,67,69,71,73,75,77,79,81,83,85,87,89,91,93,95,97,99,101,103,-1,-1,-1,-1,-1,-1,-1,-1,-1,-1,-1,-1,-1,-1,-1,-1,-1,-1,-1,-1,-1,-1,-1,-1,-1,-1,-1,-1,-1,-1,-1,-1,-1,-1,-1,-1,-1,-1,-1,-1,-1,-1,-1,-1,-1,-1,-1,-1],"loss_changes":[2.744547E8,2.253085E8,1.0267667E8,7.373546E7,7.9940075E5,5.3276652E7,1.351056E6,2.6771648E7,2.4528112E7,1.1787584E5,3.661375E4,1.7339772E7,1.4200149E7,2.87368E5,3.864E4,2.674096E6,2.628896E6,2.661872E6,3.18876E6,6.4003688E4,1.2005778E5,7.388275E4,6.50975E3,6.35704E5,4.001046E6,3.486117E6,5.005459E6,2.5523E4,0E0,0E0,0E0,0E0,0E0,1.670624E6,2.45362E5,1.658176E6,1.107476E6,7.5022E5,9.39704E5,2.7513963E4,1.7682062E4,1.2596189E5,6.0473156E4,1.2755E4,1.010725E4,5.8076875E3,6.2925E3,5.32318E5,3.20762E5,7.11358E5,6.610405E5,3.81373E5,1.6619969E5,6.547742E5,4.6405E5,2.3975E2,2.513E3,0E0,0E0,0E0,0E0,0E0,0E0,0E0,0E0,0E0,0E0,0E0,0E0,0E0,0E0,0E0,0E0,0E0,0E0,0E0,0E0,0E0,0E0,0E0,0E0,0E0,0E0,0E0,0E0,0E0,0E0,0E0,0E0,0E0,0E0,0E0,0E0,0E0,0E0,0E0,0E0,0E0,0E0,0E0,0E0,0E0,0E0,0E0,0E0],"parents":[2147483647,0,0,1,1,2,2,3,3,4,4,5,5,6,6,7,7,8,8,9,9,10,10,11,11,12,12,13,13,14,14,15,15,16,16,17,17,18,18,19,19,20,20,21,21,22,22,23,23,24,24,25,25,26,26,27,27,33,33,34,34,35,35,36,36,37,37,38,38,39,39,40,40,41,41,42,42,43,43,44,44,45,45,46,46,47,47,48,48,49,49,50,50,51,51,52,52,53,53,54,54,55,55,56,56],"right_children":[2,4,6,8,10,12,14,16,18,20,22,24,26,28,30,32,34,36,38,40,42,44,46,48,50,52,54,56,-1,-1,-1,-1,-1,58,60,62,64,66,68,70,72,74,76,78,80,82,84,86,88,90,92,94,96,98,100,102,104,-1,-1,-1,-1,-1,-1,-1,-1,-1,-1,-1,-1,-1,-1,-1,-1,-1,-1,-1,-1,-1,-1,-1,-1,-1,-1,-1,-1,-1,-1,-1,-1,-1,-1,-1,-1,-1,-1,-1,-1,-1,-1,-1,-1,-1,-1,-1,-1],"split_conditions":[1.213E1,NaN,NaN,NaN,8.35E0,2.161E1,2.611E1,6.76E0,7.48E0,1.468E1,NaN,NaN,NaN,1.668E1,3.623E1,1.8E1,1.468948E4,1.019E1,9.37E0,5.46E0,6.98E0,9.18E0,2.55E0,1.803E1,1.583E1,3.338E1,3.442E1,1.417E1,-2.1632392E0,-2.4175153E0,-2.5788362E0,2.5579515E1,3.961109E0,1.163E1,3.825E1,NaN,-1.43E0,NaN,1E0,3.043E1,NaN,3.72E0,1.912E1,NaN,1.103E1,NaN,5.3E0,1.1624E2,1.755E1,1.375E1,1.94E1,2.758E1,3.837E1,2.842E1,4.107E1,1.875534E4,9.4E-1,1.3430145E1,4.9892907E0,7.7498093E0,2.992131E0,1.1067047E1,8.265366E0,7.0367603E0,1.5180417E1,6.515977E0,4.018307E0,3.3226803E-1,4.4005375E0,7.711261E-1,-5.857587E-1,4.623123E-2,-1.2633133E0,-6.799142E-1,6.869858E-2,2.1455584E-1,-7.264084E-1,-2.2805874E-1,-7.915623E-1,-1.3329489E0,-5.7735074E-1,-4.8879132E-1,-1.2311596E0,-3.1198433E-1,-1.5365868E0,6.435756E0,7.792655E-1,5.232863E0,3.1631937E0,3.3567245E0,2.2942147E0,1.5127426E0,7.368099E-1,2.6107662E0,1.6659303E0,8.509959E-1,3.109332E-1,9.508398E-3,-4.81934E-1,-9.09741E-1,-1.2915221E0,-1.6428233E0,-8.149787E-1,-5.0879765E-1,-1.8968179E0],"split_indices":[5,0,0,0,5,5,5,5,5,8,3,0,0,5,5,1,2,7,5,5,5,5,7,5,5,5,5,5,0,0,0,0,0,7,8,3,6,3,1,6,4,7,8,3,7,4,8,8,6,5,5,5,5,5,5,2,8,0,0,0,0,0,0,0,0,0,0,0,0,0,0,0,0,0,0,0,0,0,0,0,0,0,0,0,0,0,0,0,0,0,0,0,0,0,0,0,0,0,0,0,0,0,0,0,0],"split_type":[0,1,1,1,0,0,0,0,0,0,1,1,1,0,0,0,0,0,0,0,0,0,0,0,0,0,0,0,0,0,0,0,0,0,0,1,0,1,0,0,1,0,0,1,0,1,0,0,0,0,0,0,0,0,0,0,0,0,0,0,0,0,0,0,0,0,0,0,0,0,0,0,0,0,0,0,0,0,0,0,0,0,0,0,0,0,0,0,0,0,0,0,0,0,0,0,0,0,0,0,0,0,0,0,0],"sum_hessian":[7.585E3,1.156E3,6.429E3,6.92E2,4.64E2,3.809E3,2.62E3,1.24E2,5.68E2,2.27E2,2.37E2,8.95E2,2.914E3,1.016E3,1.604E3,2.3E1,1.01E2,1.84E2,3.84E2,3.1E1,1.96E2,1.18E2,1.19E2,1.34E2,7.61E2,4.83E2,2.431E3,3.4E2,6.76E2,6.72E2,9.32E2,2.2E1,1E0,9.3E1,8E0,1.65E2,1.9E1,1.55E2,2.29E2,4E0,2.7E1,1.06E2,9E1,3E1,8.8E1,2.7E1,9.2E1,8.2E1,5.2E1,2.98E2,4.63E2,1.92E2,2.91E2,1.088E3,1.343E3,1.5E2,1.9E2,8.9E1,4E0,4E0,4E0,4.1E1,1.24E2,5E0,1.4E1,1.35E2,2E1,6E0,2.23E2,2E0,2E0,1E0,2.6E1,3.1E1,7.5E1,7E0,8.3E1,6E0,2.4E1,8.4E1,4E0,3E0,2.4E1,1E0,9.1E1,8E1,2E0,3.4E1,1.8E1,1.08E2,1.9E2,2.75E2,1.88E2,1.05E2,8.7E1,7.8E1,2.13E2,5.8E2,5.08E2,5.61E2,7.82E2,1.47E2,3E0,1E0,1.89E2],"tree_param":{"num_deleted":"0","num_feature":"9","num_nodes":"105","size_leaf_vector":"1"}},{"base_weights":[9.045265E-2,4.4405573E2,-7.979569E1,8.016149E2,-8.977774E1,2.3978203E1,-2.3061551E2,1.4922969E3,6.4847455E2,-4.7468193E1,-1.2993234E2,2.3512218E2,-4.093054E1,-2.0173753E2,-2.487702E2,2.4607666E3,1.2497913E3,9.4629724E2,5.0368057E2,-1.0355189E2,-3.81172E1,-1.14476006E2,-1.4417712E2,5.624979E2,1.7681398E2,1.1396586E2,-7.174013E1,-1.7647545E2,-2.1416388E0,-2.3239532E0,-2.524641E0,2.5334843E1,3.9413033E0,1.2994756E3,5.920003E2,8.934941E2,1.3372487E3,6.159981E2,4.2531006E2,1.1047897E1,-1.20317856E2,-1.5305528E1,-6.452084E1,-6.832842E1,-1.2926364E2,-1.1580003E2,-1.5117047E2,6.2391315E2,4.5247147E2,2.6625208E2,1.187993E2,2.1717743E2,4.5356953E1,-2.1798626E1,-1.1215274E2,-1.6314952E2,-1.8876938E0,1.3297335E1,4.9493766E0,7.687811E0,2.968194E0,9.638998E0,6.9472427E0,1.3920179E1,1.4831573E0,6.4512963E0,3.9800377E0,4.7898297E0,3.3649676E0,7.659853E-1,-5.818537E-1,-1.3307389E0,-5.136672E-1,-6.8519604E-1,6.317096E-2,2.1267837E-1,-7.192309E-1,-2.2610395E-1,-7.839633E-1,-1.3521862E0,-8.7703395E-1,-4.851253E-1,-1.2193403E0,-6.651636E-1,-1.532532E0,7.2103467E0,5.5027995E0,2.3311493E0,5.0563745E0,3.1154156E0,2.0968056E0,1.4976698E0,7.2948074E-1,2.5849047E0,1.6494604E0,8.425937E-1,3.078383E-1,9.413347E-3,-4.7712412E-1,-9.0065986E-1,-1.2786232E0,-1.6440591E0,-8.855561E-1],"categories":[4,9,4,9,0,1,2,3,4,5,7,8,9,10,11,0,2,5,0,1,2,3,4,5,7,8,9,10,11,0,1,2,3,5,7,8,10,11,0,1,5,6,4,6,7,8,9,10,11,0,1,3,0,2],"categories_nodes":[1,2,3,10,11,12,35,36,37,43,45],"categories_segments":[0,2,4,15,18,29,38,42,49,51,52],"categories_sizes":[2,2,11,3,11,9,4,7,2,1,2],"default_left":[0,1,1,1,0,0,0,0,0,1,1,1,1,0,0,0,0,0,0,0,0,0,0,0,0,0,0,0,0,0,0,0,0,0,0,1,1,0,0,0,0,0,0,0,0,1,0,0,0,0,0,0,0,0,0,0,0,0,0,0,0,0,0,0,0,0,0,0,0,0,0,0,0,0,0,0,0,0,0,0,0,0,0,0,0,0,0,0,0,0,0,0,0,0,0,0,0,0,0,0,0,0,0],"id":6,"left_children":[1,3,5,7,9,11,13,15,17,19,21,23,25,27,29,31,33,35,37,39,41,43,45,47,49,51,53,55,-1,-1,-1,-1,-1,57,59,61,63,65,67,69,71,73,75,77,79,81,83,85,87,89,91,93,95,97,99,101,-1,-1,-1,-1,-1,-1,-1,-1,-1,-1,-1,-1,-1,-1,-1,-1,-1,-1,-1,-1,-1,-1,-1,-1,-1,-1,-1,-1,-1,-1,-1,-1,-1,-1,-1,-1,-1,-1,-1,-1,-1,-1,-1,-1,-1,-1,-1],"loss_changes":[2.6908563E8,2.2091667E8,1.0064248E8,7.233181E7,7.83832E5,5.222601E7,1.323936E6,2.6281984E7,2.4060304E7,1.15624875E5,3.5896E4,1.7004004E7,1.3919414E7,2.81456E5,3.8408E4,2.608208E6,2.564256E6,2.624224E6,3.126928E6,6.281328E4,1.1766778E5,7.2374875E4,6.30875E3,6.29936E5,3.922178E6,3.417466E6,4.905981E6,2.5067E4,0E0,0E0,0E0,0E0,0E0,1.630176E6,2.41452E5,1.653456E6,1.09588E6,7.33916E5,9.35204E5,2.7148338E4,1.7791656E4,1.2355003E5,5.931728E4,1.249625E4,1.01675E4,5.6414375E3,6.20325E3,2.03942E5,4.88569E5,7.00742E5,6.47911E5,3.73826E5,1.6294962E5,6.417691E5,4.54816E5,1.4675E3,0E0,0E0,0E0,0E0,0E0,0E0,0E0,0E0,0E0,0E0,0E0,0E0,0E0,0E0,0E0,0E0,0E0,0E0,0E0,0E0,0E0,0E0,0E0,0E0,0E0,0E0,0E0,0E0,0E0,0E0,0E0,0E0,0E0,0E0,0E0,0E0,0E0,0E0,0E0,0E0,0E0,0E0,0E0,0E0,0E0,0E0,0E0],"parents":[2147483647,0,0,1,1,2,2,3,3,4,4,5,5,6,6,7,7,8,8,9,9,10,10,11,11,12,12,13,13,14,14,15,15,16,16,17,17,18,18,19,19,20,20,21,21,22,22,23,23,24,24,25,25,26,26,27,27,33,33,34,34,35,35,36,36,37,37,38,38,39,39,40,40,41,41,42,42,43,43,44,44,45,45,46,46,47,47,48,48,49,49,50,50,51,51,52,52,53,53,54,54,55,55],"right_children":[2,4,6,8,10,12,14,16,18,20,22,24,26,28,30,32,34,36,38,40,42,44,46,48,50,52,54,56,-1,-1,-1,-1,-1,58,60,62,64,66,68,70,72,74,76,78,80,82,84,86,88,90,92,94,96,98,100,102,-1,-1,-1,-1,-1,-1,-1,-1,-1,-1,-1,-1,-1,-1,-1,-1,-1,-1,-1,-1,-1,-1,-1,-1,-1,-1,-1,-1,-1,-1,-1,-1,-1,-1,-1,-1,-1,-1,-1,-1,-1,-1,-1,-1,-1,-1,-1],"split_conditions":[1.213E1,NaN,NaN,NaN,8.35E0,2.161E1,2.611E1,6.76E0,7.48E0,1.468E1,NaN,NaN,NaN,1.668E1,3.068E1,1.8E1,1.468948E4,1.019E1,9.37E0,5.46E0,6.98E0,9.18E0,2.55E0,1.731E1,1.583E1,3.338E1,3.442E1,1.451E1,-2.1416388E0,-2.3239532E0,-2.524641E0,2.5334843E1,3.9413033E0,1.163E1,3.825E1,NaN,NaN,NaN,1.107E1,3.043E1,2.965E1,3.4E0,1.912E1,NaN,1.0461E2,NaN,6.47E0,1.623E1,5E0,1.431E1,1.94E1,2.758E1,3.837E1,2.842E1,4.107E1,1.875534E4,-1.8876938E0,1.3297335E1,4.9493766E0,7.687811E0,2.968194E0,9.638998E0,6.9472427E0,1.3920179E1,1.4831573E0,6.4512963E0,3.9800377E0,4.7898297E0,3.3649676E0,7.659853E-1,-5.818537E-1,-1.3307389E0,-5.136672E-1,-6.8519604E-1,6.317096E-2,2.1267837E-1,-7.192309E-1,-2.2610395E-1,-7.839633E-1,-1.3521862E0,-8.7703395E-1,-4.851253E-1,-1.2193403E0,-6.651636E-1,-1.532532E0,7.2103467E0,5.5027995E0,2.3311493E0,5.0563745E0,3.1154156E0,2.0968056E0,1.4976698E0,7.2948074E-1,2.5849047E0,1.6494604E0,8.425937E-1,3.078383E-1,9.413347E-3,-4.7712412E-1,-9.0065986E-1,-1.2786232E0,-1.6440591E0,-8.855561E-1],"split_indices":[5,0,0,0,5,5,5,5,5,8,3,0,0,5,5,1,2,7,5,5,5,5,7,6,5,5,5,5,0,0,0,0,0,7,8,4,0,3,5,6,6,7,8,3,8,4,8,5,1,5,5,5,5,5,5,2,0,0,0,0,0,0,0,0,0,0,0,0,0,0,0,0,0,0,0,0,0,0,0,0,0,0,0,0,0,0,0,0,0,0,0,0,0,0,0,0,0,0,0,0,0,0,0],"split_type":[0,1,1,1,0,0,0,0,0,0,1,1,1,0,0,0,0,0,0,0,0,0,0,0,0,0,0,0,0,0,0,0,0,0,0,1,1,1,0,0,0,0,0,1,0,1,0,0,0,0,0,0,0,0,0,0,0,0,0,0,0,0,0,0,0,0,0,0,0,0,0,0,0,0,0,0,0,0,0,0,0,0,0,0,0,0,0,0,0,0,0,0,0,0,0,0,0,0,0,0,0,0,0],"sum_hessian":[7.585E3,1.156E3,6.429E3,6.92E2,4.64E2,3.809E3,2.62E3,1.24E2,5.68E2,2.27E2,2.37E2,8.95E2,2.914E3,1.016E3,1.604E3,2.3E1,1.01E2,1.84E2,3.84E2,3.1E1,1.96E2,1.18E2,1.19E2,1.34E2,7.61E2,4.83E2,2.431E3,3.4E2,6.76E2,3.07E2,1.297E3,2.2E1,1E0,9.3E1,8E0,1.65E2,1.9E1,1.55E2,2.29E2,4E0,2.7E1,1.06E2,9E1,3E1,8.8E1,2.7E1,9.2E1,8.3E1,5.1E1,2.98E2,4.63E2,1.92E2,2.91E2,1.088E3,1.343E3,1.7E2,1.7E2,8.9E1,4E0,4E0,4E0,1.19E2,4.6E1,1.8E1,1E0,1.35E2,2E1,1.4E2,8.9E1,2E0,2E0,2.2E1,5E0,3E1,7.6E1,7E0,8.3E1,6E0,2.4E1,7.5E1,1.3E1,3E0,2.4E1,3E0,8.9E1,3.2E1,5.1E1,1.1E1,4E1,1.63E2,1.35E2,2.75E2,1.88E2,1.05E2,8.7E1,7.8E1,2.13E2,5.8E2,5.08E2,5.61E2,7.82E2,1.66E2,4E0],"tree_param":{"num_deleted":"0","num_feature":"9","num_nodes":"103","size_leaf_vector":"1"}},{"base_weights":[1.0506032E-1,4.397006E2,-7.8994804E1,7.937557E2,-8.890131E1,2.3746368E1,-2.2831372E2,1.4778394E3,6.420787E2,-4.7005737E1,-1.2866304E2,2.3280168E2,-4.052029E1,-1.9972661E2,-2.4628554E2,2.4373787E3,1.2375768E3,9.370072E2,4.9869205E2,-1.02568245E2,-3.774175E1,-1.13358475E2,-1.4276787E2,5.5702185E2,1.7505559E2,1.12837326E2,-7.102381E1,-1.7472365E2,-2.120254E0,-2.3690827E0,-2.5278563E0,2.5092508E1,3.9215965E0,1.2866749E3,5.872643E2,8.8465906E2,1.3246464E3,6.09905E2,4.2109244E2,1.097424E1,-1.1918054E2,-1.5158281E1,-6.388119E1,-6.767772E1,-1.27996056E2,-1.1470292E2,-1.4968239E2,6.1890393E2,4.496023E2,2.63607E2,1.176161E2,2.1502759E2,4.490733E1,-2.1581066E1,-1.1103284E2,-1.5994373E2,-1.8549352E2,1.3165839E1,4.9097815E0,7.6263084E0,2.9444482E0,1.0872607E1,8.095077E0,6.8828473E0,1.4908812E1,6.3872576E0,3.9421327E0,2.9243535E-1,4.314578E0,7.608787E-1,-5.779747E-1,-1.3180101E0,-5.093866E-1,-6.669235E-1,6.739727E-2,2.1081744E-1,-7.121241E-1,-2.2416592E-1,-7.764372E-1,-1.3388424E0,-8.6889E-1,-4.8148677E-1,-1.2076347E0,-3.070986E-1,-1.5064176E0,6.314098E0,7.494454E-1,5.128701E0,3.09393E0,3.2925966E0,2.2476013E0,1.4827473E0,7.222244E-1,2.5592997E0,1.6331531E0,8.3427453E-1,3.0477437E-1,9.319514E-3,-4.7236237E-1,-8.916692E-1,-1.2658533E0,-1.6101766E0,-8.022247E-1,-4.9803337E-1,-1.8594555E0],"categories":[4,9,4,9,0,1,2,3,4,5,7,8,9,10,11,0,2,5,0,1,2,3,4,5,7,8,9,10,11,0,1,2,3,5,7,8,10,11,1,3,5,0,1,3,0,2],"categories_nodes":[1,2,3,10,11,12,35,37,43,45],"categories_segments":[0,2,4,15,18,29,38,41,43,44],"categories_sizes":[2,2,11,3,11,9,3,2,1,2],"default_left":[0,1,1,1,0,0,0,0,0,1,1,1,1,0,0,0,0,0,0,0,0,0,0,0,0,0,0,0,0,0,0,0,0,0,0,0,0,0,0,0,0,0,0,0,0,1,0,1,0,0,0,0,0,0,0,0,0,0,0,0,0,0,0,0,0,0,0,0,0,0,0,0,0,0,0,0,0,0,0,0,0,0,0,0,0,0,0,0,0,0,0,0,0,0,0,0,0,0,0,0,0,0,0,0,0],"id":7,"left_children":[1,3,5,7,9,11,13,15,17,19,21,23,25,27,29,31,33,35,37,39,41,43,45,47,49,51,53,55,-1,-1,-1,-1,-1,57,59,61,63,65,67,69,71,73,75,77,79,81,83,85,87,89,91,93,95,97,99,101,103,-1,-1,-1,-1,-1,-1,-1,-1,-1,-1,-1,-1,-1,-1,-1,-1,-1,-1,-1,-1,-1,-1,-1,-1,-1,-1,-1,-1,-1,-1,-1,-1,-1,-1,-1,-1,-1,-1,-1,-1,-1,-1,-1,-1,-1,-1,-1,-1],"loss_changes":[2.6381472E8,2.1660798E8,9.864933E7,7.095664E7,7.6856775E5,5.119787E7,1.297392E6,2.5801216E7,2.359504E7,1.1348741E5,3.519275E4,1.6677804E7,1.3644231E7,2.75688E5,3.7936E4,2.54384E6,2.501184E6,2.582208E6,3.06576E6,6.1666344E4,1.1532456E5,7.090775E4,6.11775E3,6.19128E5,3.844794E6,3.350167E6,4.808479E6,2.4611E4,0E0,0E0,0E0,0E0,0E0,1.590624E6,2.37604E5,1.647328E6,1.089556E6,7.17964E5,9.21568E5,2.6787564E4,1.7401031E4,1.211983E5,5.8183562E4,1.224275E4,9.909E3,5.479375E3,5.988875E3,5.17302E5,3.11472E5,6.88564E5,6.35044E5,3.66428E5,1.5976294E5,6.290236E5,4.45766E5,1.1E1,2.4545E3,0E0,0E0,0E0,0E0,0E0,0E0,0E0,0E0,0E0,0E0,0E0,0E0,0E0,0E0,0E0,0E0,0E0,0E0,0E0,0E0,0E0,0E0,0E0,0E0,0E0,0E0,0E0,0E0,0E0,0E0,0E0,0E0,0E0,0E0,0E0,0E0,0E0,0E0,0E0,0E0,0E0,0E0,0E0,0E0,0E0,0E0,0E0,0E0],"parents":[2147483647,0,0,1,1,2,2,3,3,4,4,5,5,6,6,7,7,8,8,9,9,10,10,11,11,12,12,13,13,14,14,15,15,16,16,17,17,18,18,19,19,20,20,21,21,22,22,23,23,24,24,25,25,26,26,27,27,33,33,34,34,35,35,36,36,37,37,38,38,39,39,40,40,41,41,42,42,43,43,44,44,45,45,46,46,47,47,48,48,49,49,50,50,51,51,52,52,53,53,54,54,55,55,56,56],"right_children":[2,4,6,8,10,12,14,16,18,20,22,24,26,28,30,32,34,36,38,40,42,44,46,48,50,52,54,56,-1,-1,-1,-1,-1,58,60,62,64,66,68,70,72,74,76,78,80,82,84,86,88,90,92,94,96,98,100,102,104,-1,-1,-1,-1,-1,-1,-1,-1,-1,-1,-1,-1,-1,-1,-1,-1,-1,-1,-1,-1,-1,-1,-1,-1,-1,-1,-1,-1,-1,-1,-1,-1,-1,-1,-1,-1,-1,-1,-1,-1,-1,-1,-1,-1,-1,-1,-1,-1],"split_conditions":[1.213E1,NaN,NaN,NaN,8.35E0,2.161E1,2.611E1,6.76E0,7.48E0,1.468E1,NaN,NaN,NaN,1.668E1,3.623E1,1.8E1,1.468948E4,1.019E1,9.37E0,5.46E0,6.98E0,9.18E0,2.55E0,1.803E1,1.583E1,3.338E1,3.442E1,1.417E1,-2.120254E0,-2.3690827E0,-2.5278563E0,2.5092508E1,3.9215965E0,1.163E1,3.825E1,NaN,-1.43E0,NaN,1E0,3.043E1,2.965E1,3.72E0,1.912E1,NaN,1.0461E2,NaN,5.3E0,1.1624E2,1.755E1,1.375E1,1.94E1,2.758E1,3.837E1,2.842E1,4.107E1,1.875534E4,9.4E-1,1.3165839E1,4.9097815E0,7.6263084E0,2.9444482E0,1.0872607E1,8.095077E0,6.8828473E0,1.4908812E1,6.3872576E0,3.9421327E0,2.9243535E-1,4.314578E0,7.608787E-1,-5.779747E-1,-1.3180101E0,-5.093866E-1,-6.669235E-1,6.739727E-2,2.1081744E-1,-7.121241E-1,-2.2416592E-1,-7.764372E-1,-1.3388424E0,-8.6889E-1,-4.8148677E-1,-1.2076347E0,-3.070986E-1,-1.5064176E0,6.314098E0,7.494454E-1,5.128701E0,3.09393E0,3.2925966E0,2.2476013E0,1.4827473E0,7.222244E-1,2.5592997E0,1.6331531E0,8.3427453E-1,3.0477437E-1,9.319514E-3,-4.7236237E-1,-8.916692E-1,-1.2658533E0,-1.6101766E0,-8.022247E-1,-4.9803337E-1,-1.8594555E0],"split_indices":[5,0,0,0,5,5,5,5,5,8,3,0,0,5,5,1,2,7,5,5,5,5,7,5,5,5,5,5,0,0,0,0,0,7,8,3,6,3,1,6,6,7,8,3,8,4,8,8,6,5,5,5,5,5,5,2,8,0,0,0,0,0,0,0,0,0,0,0,0,0,0,0,0,0,0,0,0,0,0,0,0,0,0,0,0,0,0,0,0,0,0,0,0,0,0,0,0,0,0,0,0,0,0,0,0],"split_type":[0,1,1,1,0,0,0,0,0,0,1,1,1,0,0,0,0,0,0,0,0,0,0,0,0,0,0,0,0,0,0,0,0,0,0,1,0,1,0,0,0,0,0,1,0,1,0,0,0,0,0,0,0,0,0,0,0,0,0,0,0,0,0,0,0,0,0,0,0,0,0,0,0,0,0,0,0,0,0,0,0,0,0,0,0,0,0,0,0,0,0,0,0,0,0,0,0,0,0,0,0,0,0,0,0],"sum_hessian":[7.585E3,1.156E3,6.429E3,6.92E2,4.64E2,3.809E3,2.62E3,1.24E2,5.68E2,2.27E2,2.37E2,8.95E2,2.914E3,1.016E3,1.604E3,2.3E1,1.01E2,1.84E2,3.84E2,3.1E1,1.96E2,1.18E2,1.19E2,1.34E2,7.61E2,4.83E2,2.431E3,3.4E2,6.76E2,6.72E2,9.32E2,2.2E1,1E0,9.3E1,8E0,1.65E2,1.9E1,1.55E2,2.29E2,4E0,2.7E1,1.06E2,9E1,3E1,8.8E1,2.7E1,9.2E1,8.2E1,5.2E1,2.98E2,4.63E2,1.92E2,2.91E2,1.088E3,1.343E3,1.5E2,1.9E2,8.9E1,4E0,4E0,4E0,4.1E1,1.24E2,5E0,1.4E1,1.35E2,2E1,6E0,2.23E2,2E0,2E0,2.2E1,5E0,3.1E1,7.5E1,7E0,8.3E1,6E0,2.4E1,7.5E1,1.3E1,3E0,2.4E1,1E0,9.1E1,8E1,2E0,3.4E1,1.8E1,1.08E2,1.9E2,2.75E2,1.88E2,1.05E2,8.7E1,7.8E1,2.13E2,5.8E2,5.08E2,5.61E2,7.82E2,1.47E2,3E0,1E0,1.89E2],"tree_param":{"num_deleted":"0","num_feature":"9","num_nodes":"105","size_leaf_vector":"1"}},{"base_weights":[1.1954367E-1,4.353934E2,-7.820269E1,7.859817E2,-8.803264E1,2.3515656E1,-2.2603508E2,1.4635222E3,6.357558E2,-4.6547714E1,-1.2740461E2,2.3049937E2,-4.0114162E1,-1.9773613E2,-2.4382573E2,2.4142139E3,1.2254818E3,9.278574E2,4.9374393E2,-1.0401127E2,-3.765096E1,-1.12251854E2,-1.4136938E2,5.515649E2,1.733152E2,1.1171996E2,-7.031466E1,-1.729904E2,-2.099083E0,-2.2771754E0,-2.4746015E0,2.4852491E1,3.9019887E0,1.2740005E3,5.8256616E2,8.7592676E2,1.3124895E3,6.038722E2,4.1690155E2,-9.055788E0,-1.2737281E2,-8.760505E0,-5.6202156E1,-6.7033226E1,-1.26740906E2,-1.1361621E2,-1.4820508E2,6.120521E2,4.4324765E2,2.6098947E2,1.1644468E2,2.1289905E2,4.446215E1,-2.136568E1,-1.09924126E2,-1.5992502E2,-1.8504412E0,1.3035645E1,4.870503E0,7.565298E0,2.9208925E0,9.456423E0,6.7929287E0,6.8254905E0,1.4769663E1,6.323855E0,3.9045885E0,4.700573E0,3.2899194E0,4.7824097E-1,-6.3671726E-1,-6.9253546E-1,-1.5210409E0,-8.9607865E-1,1.6565073E-1,1.00829676E-1,-6.161866E-1,-2.222446E-1,-7.6898354E-1,-1.2944057E0,-5.5498403E-1,-4.778757E-1,-1.1960413E0,-6.5187496E-1,-1.5024803E0,7.0792003E0,5.3944263E0,2.2726393E0,4.9565144E0,3.0552306E0,2.053681E0,1.4679735E0,7.150403E-1,2.5339484E0,1.6170071E0,6.616794E-1,1.942153E-1,9.226596E-3,-4.6764815E-1,-8.8276845E-1,-1.2532111E0,-1.6115096E0,-8.699394E-1],"categories":[4,9,4,9,0,1,2,3,4,5,7,8,9,10,11,0,2,5,0,1,2,3,4,5,7,8,9,10,11,0,1,2,3,5,7,8,10,11,0,1,5,6,0,1,0,1,2,5,0,1,3,3,0,2],"categories_nodes":[1,2,3,10,11,12,35,37,39,40,43,45],"categories_segments":[0,2,4,15,18,29,38,42,44,48,51,52],"categories_sizes":[2,2,11,3,11,9,4,2,4,3,1,2],"default_left":[0,1,1,1,0,0,0,0,0,0,1,1,1,0,0,0,0,0,0,0,0,0,0,0,0,0,0,0,0,0,0,0,0,0,0,1,0,0,0,0,1,0,0,0,0,1,0,0,0,0,0,0,0,0,0,0,0,0,0,0,0,0,0,0,0,0,0,0,0,0,0,0,0,0,0,0,0,0,0,0,0,0,0,0,0,0,0,0,0,0,0,0,0,0,0,0,0,0,0,0,0,0,0],"id":8,"left_children":[1,3,5,7,9,11,13,15,17,19,21,23,25,27,29,31,33,35,37,39,41,43,45,47,49,51,53,55,-1,-1,-1,-1,-1,57,59,61,63,65,67,69,71,73,75,77,79,81,83,85,87,89,91,93,95,97,99,101,-1,-1,-1,-1,-1,-1,-1,-1,-1,-1,-1,-1,-1,-1,-1,-1,-1,-1,-1,-1,-1,-1,-1,-1,-1,-1,-1,-1,-1,-1,-1,-1,-1,-1,-1,-1,-1,-1,-1,-1,-1,-1,-1,-1,-1,-1,-1],"loss_changes":[2.5865306E8,2.1238685E8,9.669493E7,6.960595E7,7.5357425E5,5.0188228E7,1.271352E6,2.5329328E7,2.3145088E7,1.1264641E5,3.449275E4,1.635484E7,1.3374488E7,2.70016E5,3.7608E4,2.480912E6,2.439536E6,2.545584E6,3.006312E6,6.539575E4,1.0616219E5,6.9469875E4,5.92725E3,6.13208E5,3.769002E6,3.284195E6,4.712918E6,2.4111E4,0E0,0E0,0E0,0E0,0E0,1.552032E6,2.338175E5,1.633224E6,1.064112E6,7.02356E5,9.20124E5,2.479088E4,2.3963E4,1.6323733E5,4.4064406E4,1.1994344E4,9.93375E3,5.3213438E3,5.9785E3,2.02838E5,4.75911E5,6.77884E5,6.224305E5,3.59175E5,1.5742462E5,6.16531E5,4.36895E5,1.269E3,0E0,0E0,0E0,0E0,0E0,0E0,0E0,0E0,0E0,0E0,0E0,0E0,0E0,0E0,0E0,0E0,0E0,0E0,0E0,0E0,0E0,0E0,0E0,0E0,0E0,0E0,0E0,0E0,0E0,0E0,0E0,0E0,0E0,0E0,0E0,0E0,0E0,0E0,0E0,0E0,0E0,0E0,0E0,0E0,0E0,0E0,0E0],"parents":[2147483647,0,0,1,1,2,2,3,3,4,4,5,5,6,6,7,7,8,8,9,9,10,10,11,11,12,12,13,13,14,14,15,15,16,16,17,17,18,18,19,19,20,20,21,21,22,22,23,23,24,24,25,25,26,26,27,27,33,33,34,34,35,35,36,36,37,37,38,38,39,39,40,40,41,41,42,42,43,43,44,44,45,45,46,46,47,47,48,48,49,49,50,50,51,51,52,52,53,53,54,54,55,55],"right_children":[2,4,6,8,10,12,14,16,18,20,22,24,26,28,30,32,34,36,38,40,42,44,46,48,50,52,54,56,-1,-1,-1,-1,-1,58,60,62,64,66,68,70,72,74,76,78,80,82,84,86,88,90,92,94,96,98,100,102,-1,-1,-1,-1,-1,-1,-1,-1,-1,-1,-1,-1,-1,-1,-1,-1,-1,-1,-1,-1,-1,-1,-1,-1,-1,-1,-1,-1,-1,-1,-1,-1,-1,-1,-1,-1,-1,-1,-1,-1,-1,-1,-1,-1,-1,-1,-1],"split_conditions":[1.213E1,NaN,NaN,NaN,8.35E0,2.161E1,2.611E1,6.76E0,7.48E0,2.24648E3,NaN,NaN,NaN,1.668E1,3.068E1,1.8E1,1.468948E4,1.019E1,9.37E0,7.4401E2,6.43E0,9.18E0,2.55E0,1.731E1,1.583E1,3.338E1,3.442E1,1.451E1,-2.099083E0,-2.2771754E0,-2.4746015E0,2.4852491E1,3.9019887E0,1.163E1,3.825E1,NaN,-1.43E0,NaN,1.107E1,NaN,NaN,1.97E0,-1.542E1,NaN,1.103E1,NaN,6.47E0,1.623E1,5E0,1.431E1,1.94E1,2.758E1,4.267E1,2.842E1,4.107E1,1.875534E4,-1.8504412E0,1.3035645E1,4.870503E0,7.565298E0,2.9208925E0,9.456423E0,6.7929287E0,6.8254905E0,1.4769663E1,6.323855E0,3.9045885E0,4.700573E0,3.2899194E0,4.7824097E-1,-6.3671726E-1,-6.9253546E-1,-1.5210409E0,-8.9607865E-1,1.6565073E-1,1.00829676E-1,-6.161866E-1,-2.222446E-1,-7.6898354E-1,-1.2944057E0,-5.5498403E-1,-4.778757E-1,-1.1960413E0,-6.5187496E-1,-1.5024803E0,7.0792003E0,5.3944263E0,2.2726393E0,4.9565144E0,3.0552306E0,2.053681E0,1.4679735E0,7.150403E-1,2.5339484E0,1.6170071E0,6.616794E-1,1.942153E-1,9.226596E-3,-4.6764815E-1,-8.8276845E-1,-1.2532111E0,-1.6115096E0,-8.699394E-1],"split_indices":[5,0,0,0,5,5,5,5,5,2,3,0,0,5,5,1,2,7,5,2,5,5,7,6,5,5,5,5,0,0,0,0,0,7,8,4,6,3,5,3,3,7,6,3,7,4,8,5,1,5,5,5,5,5,5,2,0,0,0,0,0,0,0,0,0,0,0,0,0,0,0,0,0,0,0,0,0,0,0,0,0,0,0,0,0,0,0,0,0,0,0,0,0,0,0,0,0,0,0,0,0,0,0],"split_type":[0,1,1,1,0,0,0,0,0,0,1,1,1,0,0,0,0,0,0,0,0,0,0,0,0,0,0,0,0,0,0,0,0,0,0,1,0,1,0,1,1,0,0,1,0,1,0,0,0,0,0,0,0,0,0,0,0,0,0,0,0,0,0,0,0,0,0,0,0,0,0,0,0,0,0,0,0,0,0,0,0,0,0,0,0,0,0,0,0,0,0,0,0,0,0,0,0,0,0,0,0,0,0],"sum_hessian":[7.585E3,1.156E3,6.429E3,6.92E2,4.64E2,3.809E3,2.62E3,1.24E2,5.68E2,2.27E2,2.37E2,8.95E2,2.914E3,1.016E3,1.604E3,2.3E1,1.01E2,1.84E2,3.84E2,2.9E1,1.98E2,1.18E2,1.19E2,1.34E2,7.61E2,4.83E2,2.431E3,3.4E2,6.76E2,3.07E2,1.297E3,2.2E1,1E0,9.3E1,8E0,1.65E2,1.9E1,1.55E2,2.29E2,6E0,2.3E1,7.8E1,1.2E2,3E1,8.8E1,2.7E1,9.2E1,8.3E1,5.1E1,2.98E2,4.63E2,1.92E2,2.91E2,1.088E3,1.343E3,1.7E2,1.7E2,8.9E1,4E0,4E0,4E0,1.19E2,4.6E1,5E0,1.4E1,1.35E2,2E1,1.4E2,8.9E1,3E0,3E0,8E0,1.5E1,1.8E1,6E1,9E0,1.11E2,6E0,2.4E1,8.4E1,4E0,3E0,2.4E1,3E0,8.9E1,3.2E1,5.1E1,1.1E1,4E1,1.63E2,1.35E2,2.75E2,1.88E2,1.05E2,8.7E1,1.55E2,1.36E2,5.8E2,5.08E2,5.61E2,7.82E2,1.66E2,4E0],"tree_param":{"num_deleted":"0","num_feature":"9","num_nodes":"103","size_leaf_vector":"1"}},{"base_weights":[1.3432063E-1,4.3112842E2,-7.741782E1,7.782853E2,-8.717444E1,2.328822E1,-2.2377899E2,1.4493442E3,6.2949677E2,-4.6098106E1,-1.26158585E2,2.282245E2,-3.971219E1,-1.909903E2,-2.3881415E2,2.39127E3,1.2135054E3,9.1878345E2,4.8885382E2,-1.0101838E2,-3.6943047E1,-1.11153206E2,-1.399876E2,5.461951E2,1.7159161E2,1.1061311E2,-6.961257E1,-1.5834029E2,-1.9917264E2,-2.1958835E0,-2.4414194E0,2.4614775E1,3.882479E0,1.261451E3,5.7790564E2,8.538175E2,1.213975E3,5.9789905E2,4.1276727E2,1.0768564E1,-1.17372536E2,-1.4753985E1,-6.2627514E1,-6.639487E1,-1.2549428E2,-1.4342635E2,-9.287398E1,6.071515E2,4.404296E2,2.5839664E2,1.15284935E2,2.1079156E2,4.402046E1,-2.1152437E1,-1.0882647E2,-1.5954908E0,-8.6297995E-1,-1.8575132E0,-2.0579505E0,1.2906735E1,4.8315387E0,7.504776E0,2.8975255E0,8.781535E0,2.1383383E0,7.4892235E0,1.3701818E1,6.261081E0,3.8674016E0,2.5366852E-1,4.230308E0,7.547019E-1,-5.7522583E-1,6.2706605E-2,-1.2218416E0,-6.673451E-1,6.364851E-2,2.121001E-1,-6.986648E-1,-2.2033952E-1,-7.6160127E-1,-1.3130511E0,-8.498585E-1,-1.3476456E0,-1.8288401E0,-1.2240154E0,-1.0600349E-1,6.194749E0,7.203519E-1,4.8335676E0,2.5348213E0,3.2297008E0,2.2019298E0,1.4533468E0,7.0792794E-1,2.508848E0,1.6010209E0,8.1950414E-1,2.9812574E-1,9.134592E-3,-4.6298084E-1,-7.551965E-1,-1.186556E0],"categories":[4,9,4,9,0,1,2,3,4,5,7,8,9,10,11,0,2,5,0,1,2,3,4,5,7,8,9,10,11,0,1,2,3,5,7,8,10,11,0,1,2,3,6,3],"categories_nodes":[1,2,3,10,11,12,37,40,43],"categories_segments":[0,2,4,15,18,29,38,40,43],"categories_sizes":[2,2,11,3,11,9,2,3,1],"default_left":[0,1,1,1,0,0,0,0,0,1,1,1,1,0,0,0,0,0,0,0,0,0,1,0,0,0,0,0,0,0,0,0,0,0,0,1,0,0,0,0,1,0,0,0,0,1,0,1,0,0,0,0,0,0,0,0,0,0,0,0,0,0,0,0,0,0,0,0,0,0,0,0,0,0,0,0,0,0,0,0,0,0,0,0,0,0,0,0,0,0,0,0,0,0,0,0,0,0,0,0,0,0,0],"id":9,"left_children":[1,3,5,7,9,11,13,15,17,19,21,23,25,27,29,31,33,35,37,39,41,43,45,47,49,51,53,55,57,-1,-1,-1,-1,59,61,63,65,67,69,71,73,75,77,79,81,83,85,87,89,91,93,95,97,99,101,-1,-1,-1,-1,-1,-1,-1,-1,-1,-1,-1,-1,-1,-1,-1,-1,-1,-1,-1,-1,-1,-1,-1,-1,-1,-1,-1,-1,-1,-1,-1,-1,-1,-1,-1,-1,-1,-1,-1,-1,-1,-1,-1,-1,-1,-1,-1,-1],"loss_changes":[2.5359176E8,2.0824963E8,9.47799E7,6.828083E7,7.3880075E5,4.920024E7,1.246496E6,2.4866E7,2.2701248E7,1.1090609E5,3.382725E4,1.604108E7,1.3109996E7,1.89936E5,1.30048E5,2.419392E6,2.379376E6,2.511312E6,2.947504E6,5.976575E4,1.11349125E5,6.8051875E4,6.1205E3,6.02948E5,3.694642E6,3.219557E6,4.619254E6,1.1225E3,2.0344E4,0E0,0E0,0E0,0E0,1.51432E6,2.300915E5,2.226296E6,1.225816E6,6.87092E5,9.03776E5,2.6433986E4,1.7424062E4,1.1788597E5,5.6709438E4,1.1750969E4,9.7905E3,1.2949E4,2.5425242E4,5.02718E5,3.02809E5,6.665E5,6.100685E5,3.52068E5,1.5491688E5,6.042861E5,4.31032E5,0E0,0E0,0E0,0E0,0E0,0E0,0E0,0E0,0E0,0E0,0E0,0E0,0E0,0E0,0E0,0E0,0E0,0E0,0E0,0E0,0E0,0E0,0E0,0E0,0E0,0E0,0E0,0E0,0E0,0E0,0E0,0E0,0E0,0E0,0E0,0E0,0E0,0E0,0E0,0E0,0E0,0E0,0E0,0E0,0E0,0E0,0E0,0E0],"parents":[2147483647,0,0,1,1,2,2,3,3,4,4,5,5,6,6,7,7,8,8,9,9,10,10,11,11,12,12,13,13,14,14,15,15,16,16,17,17,18,18,19,19,20,20,21,21,22,22,23,23,24,24,25,25,26,26,27,27,28,28,33,33,34,34,35,35,36,36,37,37,38,38,39,39,40,40,41,41,42,42,43,43,44,44,45,45,46,46,47,47,48,48,49,49,50,50,51,51,52,52,53,53,54,54],"right_children":[2,4,6,8,10,12,14,16,18,20,22,24,26,28,30,32,34,36,38,40,42,44,46,48,50,52,54,56,58,-1,-1,-1,-1,60,62,64,66,68,70,72,74,76,78,80,82,84,86,88,90,92,94,96,98,100,102,-1,-1,-1,-1,-1,-1,-1,-1,-1,-1,-1,-1,-1,-1,-1,-1,-1,-1,-1,-1,-1,-1,-1,-1,-1,-1,-1,-1,-1,-1,-1,-1,-1,-1,-1,-1,-1,-1,-1,-1,-1,-1,-1,-1,-1,-1,-1,-1],"split_conditions":[1.213E1,NaN,NaN,NaN,8.35E0,2.161E1,2.319E1,6.76E0,7.48E0,1.468E1,NaN,NaN,NaN,1.451E1,2.931E1,1.8E1,1.468948E4,9.27E0,9.37E0,5.46E0,6.98E0,9.18E0,1.1431E2,1.803E1,1.583E1,3.338E1,3.442E1,1.875534E4,1.744E1,-2.1958835E0,-2.4414194E0,2.4614775E1,3.882479E0,1.163E1,3.825E1,1.1229E2,1.55E0,NaN,1E0,3.043E1,NaN,3.4E0,1.912E1,NaN,1.0461E2,9.418E1,7.1E0,1.1624E2,2.72E1,1.375E1,1.94E1,2.758E1,3.837E1,2.842E1,3.803E1,-1.5954908E0,-8.6297995E-1,-1.8575132E0,-2.0579505E0,1.2906735E1,4.8315387E0,7.504776E0,2.8975255E0,8.781535E0,2.1383383E0,7.4892235E0,1.3701818E1,6.261081E0,3.8674016E0,2.5366852E-1,4.230308E0,7.547019E-1,-5.7522583E-1,6.2706605E-2,-1.2218416E0,-6.673451E-1,6.364851E-2,2.121001E-1,-6.986648E-1,-2.2033952E-1,-7.6160127E-1,-1.3130511E0,-8.498585E-1,-1.3476456E0,-1.8288401E0,-1.2240154E0,-1.0600349E-1,6.194749E0,7.203519E-1,4.8335676E0,2.5348213E0,3.2297008E0,2.2019298E0,1.4533468E0,7.0792794E-1,2.508848E0,1.6010209E0,8.1950414E-1,2.9812574E-1,9.134592E-3,-4.6298084E-1,-7.551965E-1,-1.186556E0],"split_indices":[5,0,0,0,5,5,5,5,5,8,3,0,0,5,5,1,2,7,5,5,5,5,8,5,5,5,5,2,5,0,0,0,0,7,8,8,6,3,1,6,4,7,8,3,8,8,7,8,6,5,5,5,5,5,5,0,0,0,0,0,0,0,0,0,0,0,0,0,0,0,0,0,0,0,0,0,0,0,0,0,0,0,0,0,0,0,0,0,0,0,0,0,0,0,0,0,0,0,0,0,0,0,0],"split_type":[0,1,1,1,0,0,0,0,0,0,1,1,1,0,0,0,0,0,0,0,0,0,0,0,0,0,0,0,0,0,0,0,0,0,0,0,0,1,0,0,1,0,0,1,0,0,0,0,0,0,0,0,0,0,0,0,0,0,0,0,0,0,0,0,0,0,0,0,0,0,0,0,0,0,0,0,0,0,0,0,0,0,0,0,0,0,0,0,0,0,0,0,0,0,0,0,0,0,0,0,0,0,0],"sum_hessian":[7.585E3,1.156E3,6.429E3,6.92E2,4.64E2,3.809E3,2.62E3,1.24E2,5.68E2,2.27E2,2.37E2,8.95E2,2.914E3,8.28E2,1.792E3,2.3E1,1.01E2,1.84E2,3.84E2,3.1E1,1.96E2,1.18E2,1.19E2,1.34E2,7.61E2,4.83E2,2.431E3,1.7E2,6.58E2,3.98E2,1.394E3,2.2E1,1E0,9.3E1,8E0,1.54E2,3E1,1.55E2,2.29E2,4E0,2.7E1,1.06E2,9E1,3E1,8.8E1,1.09E2,1E1,8.2E1,5.2E1,2.98E2,4.63E2,1.92E2,2.91E2,1.088E3,1.343E3,1.66E2,4E0,2.27E2,4.31E2,8.9E1,4E0,4E0,4E0,1.48E2,6E0,9E0,2.1E1,1.35E2,2E1,6E0,2.23E2,2E0,2E0,1E0,2.6E1,3E1,7.6E1,7E0,8.3E1,6E0,2.4E1,7.5E1,1.3E1,9.3E1,1.6E1,7E0,3E0,8E1,2E0,4.1E1,1.1E1,1.08E2,1.9E2,2.75E2,1.88E2,1.05E2,8.7E1,7.8E1,2.13E2,5.8E2,5.08E2,3.08E2,1.035E3],"tree_param":{"num_deleted":"0","num_feature":"9","num_nodes":"103","size_leaf_vector":"1"}},{"base_weights":[1.4712536E-1,4.2689807E2,-7.664152E1,7.7065155E2,-8.632359E1,2.3061825E1,-2.2154541E2,1.4353038E3,6.2328394E2,-4.5646206E1,-1.24929146E2,2.2596667E2,-3.9314095E1,-1.8908809E2,-2.364286E2,2.3685447E3,1.2016462E3,9.0976917E2,4.8400323E2,-1.0254772E2,-3.683871E1,-1.1006811E2,-1.3862527E2,5.40839E2,1.6988567E2,1.0951778E2,-6.8917435E1,-1.5677126E2,-1.9718686E2,-2.1993804E0,-2.4254794E0,2.4379328E1,3.8630664E0,1.2490253E3,5.732824E2,8.586005E2,1.2889807E3,5.91985E2,4.086591E2,-8.66219E0,-1.2565819E2,-8.426603E0,-5.508431E1,-6.5762596E1,-1.2426364E2,-1.0690868E2,-1.4427315E2,6.0049384E2,4.3407275E2,2.5583084E2,1.1413675E2,2.0870494E2,4.358408E1,-2.0941324E1,-1.07739655E2,-1.5796314E0,-8.560761E-1,-1.8390195E0,-2.0374186E0,1.2779102E1,4.7928863E0,7.4447374E0,2.8743453E0,1.05948715E1,7.8423376E0,1.3424034E1,1.3697537E0,6.2910614E0,4.2848077E0,4.613025E0,3.2164364E0,4.7571144E-1,-6.272997E-1,-6.82975E-1,-1.5006993E0,2.4543421E-1,-6.9355696E-1,1.0374349E-1,-6.0437006E-1,-2.1845092E-1,-7.542899E-1,-1.2692373E0,-5.4189247E-1,-1.2396061E0,-6.1572725E-1,-1.4845219E0,-9.7345036E-1,6.9504833E0,5.289401E0,2.2159674E0,4.856737E0,2.9962115E0,2.011438E0,1.4388661E0,7.008862E-1,2.4839962E0,1.5851927E0,6.4953583E-1,1.8932782E-1,9.043502E-3,-4.5836008E-1,-8.6447597E-1,-1.2288448E0],"categories":[4,9,4,9,0,1,2,3,4,5,7,8,9,10,11,0,2,5,0,1,2,3,4,5,7,8,9,10,11,0,1,2,3,5,7,8,10,11,1,3,5,4,6,7,8,9,10,11,0,1,2,5,0,1,3,3],"categories_nodes":[1,2,3,10,11,12,35,36,39,40,43],"categories_segments":[0,2,4,15,18,29,38,41,48,52,55],"categories_sizes":[2,2,11,3,11,9,3,7,4,3,1],"default_left":[0,1,1,1,0,0,0,0,0,0,1,1,1,0,0,0,0,0,0,0,0,0,0,0,0,0,0,0,0,0,0,0,0,0,0,0,1,1,0,0,1,0,0,0,0,0,0,0,0,0,0,0,0,0,0,0,0,0,0,0,0,0,0,0,0,0,0,0,0,0,0,0,0,0,0,0,0,0,0,0,0,0,0,0,0,0,0,0,0,0,0,0,0,0,0,0,0,0,0,0,0,0,0],"id":10,"left_children":[1,3,5,7,9,11,13,15,17,19,21,23,25,27,29,31,33,35,37,39,41,43,45,47,49,51,53,55,57,-1,-1,-1,-1,59,61,63,65,67,69,71,73,75,77,79,81,83,85,87,89,91,93,95,97,99,101,-1,-1,-1,-1,-1,-1,-1,-1,-1,-1,-1,-1,-1,-1,-1,-1,-1,-1,-1,-1,-1,-1,-1,-1,-1,-1,-1,-1,-1,-1,-1,-1,-1,-1,-1,-1,-1,-1,-1,-1,-1,-1,-1,-1,-1,-1,-1,-1],"loss_changes":[2.486231E8,2.0418648E8,9.2901896E7,6.698352E7,7.2452125E5,4.822968E7,1.221432E6,2.4411184E7,2.2263824E7,1.1048669E5,3.3184E4,1.5730008E7,1.2850806E7,1.86058E5,1.27584E5,2.35928E6,2.320624E6,2.482976E6,2.890368E6,6.4003688E4,1.02696625E5,6.6671875E4,6.07175E3,5.99172E5,3.621808E6,3.156156E6,4.527439E6,9.81E2,1.9918E4,0E0,0E0,0E0,0E0,1.477504E6,2.2642475E5,1.64904E6,1.046988E6,6.77276E5,9.05208E5,2.426702E4,2.3357188E4,1.6040008E5,4.302303E4,1.15125E4,9.712125E3,9.374859E3,4.964375E3,2.00682E5,4.62502E5,6.55768E5,5.979535E5,3.451E5,1.5259175E5,5.922845E5,4.22768E5,0E0,0E0,0E0,0E0,0E0,0E0,0E0,0E0,0E0,0E0,0E0,0E0,0E0,0E0,0E0,0E0,0E0,0E0,0E0,0E0,0E0,0E0,0E0,0E0,0E0,0E0,0E0,0E0,0E0,0E0,0E0,0E0,0E0,0E0,0E0,0E0,0E0,0E0,0E0,0E0,0E0,0E0,0E0,0E0,0E0,0E0,0E0,0E0],"parents":[2147483647,0,0,1,1,2,2,3,3,4,4,5,5,6,6,7,7,8,8,9,9,10,10,11,11,12,12,13,13,14,14,15,15,16,16,17,17,18,18,19,19,20,20,21,21,22,22,23,23,24,24,25,25,26,26,27,27,28,28,33,33,34,34,35,35,36,36,37,37,38,38,39,39,40,40,41,41,42,42,43,43,44,44,45,45,46,46,47,47,48,48,49,49,50,50,51,51,52,52,53,53,54,54],"right_children":[2,4,6,8,10,12,14,16,18,20,22,24,26,28,30,32,34,36,38,40,42,44,46,48,50,52,54,56,58,-1,-1,-1,-1,60,62,64,66,68,70,72,74,76,78,80,82,84,86,88,90,92,94,96,98,100,102,-1,-1,-1,-1,-1,-1,-1,-1,-1,-1,-1,-1,-1,-1,-1,-1,-1,-1,-1,-1,-1,-1,-1,-1,-1,-1,-1,-1,-1,-1,-1,-1,-1,-1,-1,-1,-1,-1,-1,-1,-1,-1,-1,-1,-1,-1,-1,-1],"split_conditions":[1.213E1,NaN,NaN,NaN,8.35E0,2.161E1,2.319E1,6.76E0,7.48E0,2.24648E3,NaN,NaN,NaN,1.451E1,3.068E1,1.8E1,1.468948E4,1.019E1,9.37E0,7.4401E2,6.43E0,9.18E0,1.97E0,1.731E1,1.583E1,3.338E1,3.442E1,1.875534E4,1.744E1,-2.1993804E0,-2.4254794E0,2.4379328E1,3.8630664E0,1.163E1,3.825E1,NaN,NaN,9.234E1,1.107E1,NaN,NaN,9.55959E3,-1.542E1,NaN,1.103E1,1.5E0,1.1291E2,1.623E1,5E0,1.431E1,1.94E1,2.758E1,4.267E1,2.842E1,4.107E1,-1.5796314E0,-8.560761E-1,-1.8390195E0,-2.0374186E0,1.2779102E1,4.7928863E0,7.4447374E0,2.8743453E0,1.05948715E1,7.8423376E0,1.3424034E1,1.3697537E0,6.2910614E0,4.2848077E0,4.613025E0,3.2164364E0,4.7571144E-1,-6.272997E-1,-6.82975E-1,-1.5006993E0,2.4543421E-1,-6.9355696E-1,1.0374349E-1,-6.0437006E-1,-2.1845092E-1,-7.542899E-1,-1.2692373E0,-5.4189247E-1,-1.2396061E0,-6.1572725E-1,-1.4845219E0,-9.7345036E-1,6.9504833E0,5.289401E0,2.2159674E0,4.856737E0,2.9962115E0,2.011438E0,1.4388661E0,7.008862E-1,2.4839962E0,1.5851927E0,6.4953583E-1,1.8932782E-1,9.043502E-3,-4.5836008E-1,-8.6447597E-1,-1.2288448E0],"split_indices":[5,0,0,0,5,5,5,5,5,2,3,0,0,5,5,1,2,7,5,2,5,5,7,6,5,5,5,2,5,0,0,0,0,7,8,3,0,8,5,3,3,2,6,3,7,7,8,5,1,5,5,5,5,5,5,0,0,0,0,0,0,0,0,0,0,0,0,0,0,0,0,0,0,0,0,0,0,0,0,0,0,0,0,0,0,0,0,0,0,0,0,0,0,0,0,0,0,0,0,0,0,0,0],"split_type":[0,1,1,1,0,0,0,0,0,0,1,1,1,0,0,0,0,0,0,0,0,0,0,0,0,0,0,0,0,0,0,0,0,0,0,1,1,0,0,1,1,0,0,1,0,0,0,0,0,0,0,0,0,0,0,0,0,0,0,0,0,0,0,0,0,0,0,0,0,0,0,0,0,0,0,0,0,0,0,0,0,0,0,0,0,0,0,0,0,0,0,0,0,0,0,0,0,0,0,0,0,0,0],"sum_hessian":[7.585E3,1.156E3,6.429E3,6.92E2,4.64E2,3.809E3,2.62E3,1.24E2,5.68E2,2.27E2,2.37E2,8.95E2,2.914E3,8.28E2,1.792E3,2.3E1,1.01E2,1.84E2,3.84E2,2.9E1,1.98E2,1.18E2,1.19E2,1.34E2,7.61E2,4.83E2,2.431E3,1.7E2,6.58E2,4.95E2,1.297E3,2.2E1,1E0,9.3E1,8E0,1.65E2,1.9E1,1.55E2,2.29E2,6E0,2.3E1,7.8E1,1.2E2,3E1,8.8E1,2.1E1,9.8E1,8.3E1,5.1E1,2.98E2,4.63E2,1.92E2,2.91E2,1.088E3,1.343E3,1.66E2,4E0,2.27E2,4.31E2,8.9E1,4E0,4E0,4E0,4.1E1,1.24E2,1.8E1,1E0,1.24E2,3.1E1,1.4E2,8.9E1,3E0,3E0,8E0,1.5E1,5.1E1,2.7E1,9E0,1.11E2,6E0,2.4E1,8.4E1,4E0,1.4E1,7E0,8.8E1,1E1,3.2E1,5.1E1,1.1E1,4E1,1.63E2,1.35E2,2.75E2,1.88E2,1.05E2,8.7E1,1.55E2,1.36E2,5.8E2,5.08E2,5.61E2,7.82E2],"tree_param":{"num_deleted":"0","num_feature":"9","num_nodes":"103","size_leaf_vector":"1"}},{"base_weights":[1.608479E-1,4.2271326E2,-7.587232E1,7.631005E2,-8.548268E1,2.2838774E1,-2.1933414E2,1.4213999E3,6.171418E2,-4.5204147E1,-1.2370968E2,2.2373653E2,-3.892014E1,-1.9186688E2,-2.3660196E2,2.346036E3,1.1899031E3,9.0085114E2,4.79211E2,-1.0160009E2,-3.647509E1,-1.0899082E2,-1.3727496E2,5.3557367E2,1.6819618E2,1.0843274E2,-6.8229294E1,-1.6786453E2,-2.036733E0,-2.2748196E0,-2.4292688E0,2.4146137E1,3.8437512E0,1.3583762E3,9.799552E2,8.368477E2,1.1918085E3,5.861329E2,4.0460654E2,-8.597227E0,-1.24492584E2,-8.348006E0,-5.4537605E1,-6.5136345E1,-1.2304137E2,-1.1016384E2,-1.4396136E2,5.956231E2,4.3142877E2,2.5328928E2,1.12999985E2,2.1057472E2,4.563354E1,-2.0732311E1,-1.0666381E2,-1.5364901E0,-1.782241E2,9.128605E0,1.4511159E1,1.2372986E1,7.5981154E0,8.609023E0,2.0527894E0,7.335386E0,1.3459398E1,6.140318E0,3.7754312E0,4.567222E0,3.1846294E0,4.7214362E-1,-6.225951E-1,-6.769041E-1,-1.4866302E0,-8.7748283E-1,1.652008E-1,-1.0393578E0,-4.6566767E-1,-2.1657854E-1,-7.470486E-1,-1.2877595E0,-8.312204E-1,-4.5519632E-1,-1.1610036E0,-6.257445E-1,-1.45979E0,6.0776696E0,6.9197387E-1,4.928388E0,2.955983E0,3.1680129E0,2.1571808E0,1.4245294E0,6.939143E-1,2.4593904E0,1.6045835E0,8.517124E-1,2.9161808E-1,8.9533245E-3,-4.5378536E-1,-7.3905236E-1,-1.163315E0,-4.7161E-1,-1.7866569E0],"categories":[4,9,4,9,0,1,2,3,4,5,7,8,9,10,11,0,2,5,0,1,2,3,4,5,7,8,9,10,11,0,1,2,3,5,7,8,10,11,2,3,4,0,1,0,1,2,5,0,1,3,3,0,2],"categories_nodes":[1,2,3,10,11,12,16,37,39,40,43,45],"categories_segments":[0,2,4,15,18,29,38,41,43,47,50,51],"categories_sizes":[2,2,11,3,11,9,3,2,4,3,1,2],"default_left":[0,1,1,1,0,0,0,0,0,0,1,1,1,0,0,0,1,0,0,0,0,0,0,0,0,0,0,0,0,0,0,0,0,0,0,1,0,0,0,0,1,0,1,0,0,1,0,1,0,0,0,0,0,0,0,0,0,0,0,0,0,0,0,0,0,0,0,0,0,0,0,0,0,0,0,0,0,0,0,0,0,0,0,0,0,0,0,0,0,0,0,0,0,0,0,0,0,0,0,0,0,0,0],"id":11,"left_children":[1,3,5,7,9,11,13,15,17,19,21,23,25,27,29,31,33,35,37,39,41,43,45,47,49,51,53,55,-1,-1,-1,-1,-1,57,59,61,63,65,67,69,71,73,75,77,79,81,83,85,87,89,91,93,95,97,99,-1,101,-1,-1,-1,-1,-1,-1,-1,-1,-1,-1,-1,-1,-1,-1,-1,-1,-1,-1,-1,-1,-1,-1,-1,-1,-1,-1,-1,-1,-1,-1,-1,-1,-1,-1,-1,-1,-1,-1,-1,-1,-1,-1,-1,-1,-1,-1],"loss_changes":[2.4375507E8,2.0020709E8,9.106198E7,6.5709344E7,7.1038075E5,4.7280244E7,1.197744E6,2.3964736E7,2.1834544E7,1.0853475E5,3.25585E4,1.5428232E7,1.2596666E7,2.54012E5,3.7328E4,2.300504E6,2.27664E6,2.44776E6,2.833936E6,6.280175E4,1.0064584E5,6.531075E4,5.894E3,5.873E5,3.55035E6,3.0949765E6,4.437462E6,2.2835E4,0E0,0E0,0E0,0E0,0E0,9.06464E5,1.835852E6,2.178056E6,1.202348E6,6.76008E5,8.87124E5,2.3904383E4,2.2887312E4,1.574377E5,4.2803125E4,1.1278828E4,9.67E3,5.4605312E3,6.13675E3,4.8855E5,2.9641E5,6.45142E5,5.86077E5,2.86646E5,1.9354394E5,5.805209E5,4.17047E5,0E0,2.628E3,0E0,0E0,0E0,0E0,0E0,0E0,0E0,0E0,0E0,0E0,0E0,0E0,0E0,0E0,0E0,0E0,0E0,0E0,0E0,0E0,0E0,0E0,0E0,0E0,0E0,0E0,0E0,0E0,0E0,0E0,0E0,0E0,0E0,0E0,0E0,0E0,0E0,0E0,0E0,0E0,0E0,0E0,0E0,0E0,0E0,0E0],"parents":[2147483647,0,0,1,1,2,2,3,3,4,4,5,5,6,6,7,7,8,8,9,9,10,10,11,11,12,12,13,13,14,14,15,15,16,16,17,17,18,18,19,19,20,20,21,21,22,22,23,23,24,24,25,25,26,26,27,27,33,33,34,34,35,35,36,36,37,37,38,38,39,39,40,40,41,41,42,42,43,43,44,44,45,45,46,46,47,47,48,48,49,49,50,50,51,51,52,52,53,53,54,54,56,56],"right_children":[2,4,6,8,10,12,14,16,18,20,22,24,26,28,30,32,34,36,38,40,42,44,46,48,50,52,54,56,-1,-1,-1,-1,-1,58,60,62,64,66,68,70,72,74,76,78,80,82,84,86,88,90,92,94,96,98,100,-1,102,-1,-1,-1,-1,-1,-1,-1,-1,-1,-1,-1,-1,-1,-1,-1,-1,-1,-1,-1,-1,-1,-1,-1,-1,-1,-1,-1,-1,-1,-1,-1,-1,-1,-1,-1,-1,-1,-1,-1,-1,-1,-1,-1,-1,-1,-1],"split_conditions":[1.213E1,NaN,NaN,NaN,8.35E0,2.161E1,2.611E1,6.76E0,7.48E0,2.24648E3,NaN,NaN,NaN,1.668E1,3.623E1,1.8E1,NaN,9.27E0,9.37E0,7.4401E2,6.43E0,9.18E0,2.55E0,1.803E1,1.583E1,3.285E1,3.442E1,1.417E1,-2.036733E0,-2.2748196E0,-2.4292688E0,2.4146137E1,3.8437512E0,2.63E0,9.02E0,1.1229E2,1.55E0,NaN,1.107E1,NaN,NaN,1.97E0,1.468E1,NaN,1.0461E2,NaN,6.47E0,1.1624E2,1.755E1,1.375E1,1.94E1,2.758E1,3.837E1,2.842E1,3.803E1,-1.5364901E0,9.4E-1,9.128605E0,1.4511159E1,1.2372986E1,7.5981154E0,8.609023E0,2.0527894E0,7.335386E0,1.3459398E1,6.140318E0,3.7754312E0,4.567222E0,3.1846294E0,4.7214362E-1,-6.225951E-1,-6.769041E-1,-1.4866302E0,-8.7748283E-1,1.652008E-1,-1.0393578E0,-4.6566767E-1,-2.1657854E-1,-7.470486E-1,-1.2877595E0,-8.312204E-1,-4.5519632E-1,-1.1610036E0,-6.257445E-1,-1.45979E0,6.0776696E0,6.9197387E-1,4.928388E0,2.955983E0,3.1680129E0,2.1571808E0,1.4245294E0,6.939143E-1,2.4593904E0,1.6045835E0,8.517124E-1,2.9161808E-1,8.9533245E-3,-4.5378536E-1,-7.3905236E-1,-1.163315E0,-4.7161E-1,-1.7866569E0],"split_indices":[5,0,0,0,5,5,5,5,5,2,3,0,0,5,5,1,3,7,5,2,5,5,7,5,5,5,5,5,0,0,0,0,0,7,5,8,6,3,5,3,3,7,8,3,8,4,8,8,6,5,5,5,5,5,5,0,8,0,0,0,0,0,0,0,0,0,0,0,0,0,0,0,0,0,0,0,0,0,0,0,0,0,0,0,0,0,0,0,0,0,0,0,0,0,0,0,0,0,0,0,0,0,0],"split_type":[0,1,1,1,0,0,0,0,0,0,1,1,1,0,0,0,1,0,0,0,0,0,0,0,0,0,0,0,0,0,0,0,0,0,0,0,0,1,0,1,1,0,0,1,0,1,0,0,0,0,0,0,0,0,0,0,0,0,0,0,0,0,0,0,0,0,0,0,0,0,0,0,0,0,0,0,0,0,0,0,0,0,0,0,0,0,0,0,0,0,0,0,0,0,0,0,0,0,0,0,0,0,0],"sum_hessian":[7.585E3,1.156E3,6.429E3,6.92E2,4.64E2,3.809E3,2.62E3,1.24E2,5.68E2,2.27E2,2.37E2,8.95E2,2.914E3,1.016E3,1.604E3,2.3E1,1.01E2,1.84E2,3.84E2,2.9E1,1.98E2,1.18E2,1.19E2,1.34E2,7.61E2,4.83E2,2.431E3,3.4E2,6.76E2,6.72E2,9.32E2,2.2E1,1E0,5.3E1,4.8E1,1.54E2,3E1,1.55E2,2.29E2,6E0,2.3E1,7.8E1,1.2E2,3E1,8.8E1,2.7E1,9.2E1,8.2E1,5.2E1,2.98E2,4.63E2,1.83E2,3E2,1.088E3,1.343E3,1.5E2,1.9E2,1.1E1,4.2E1,2E1,2.8E1,1.48E2,6E0,9E0,2.1E1,1.35E2,2E1,1.4E2,8.9E1,3E0,3E0,8E0,1.5E1,1.8E1,6E1,1.5E1,1.05E2,6E0,2.4E1,7.5E1,1.3E1,3E0,2.4E1,3E0,8.9E1,8E1,2E0,3.4E1,1.8E1,1.08E2,1.9E2,2.75E2,1.88E2,1.05E2,7.8E1,8.7E1,2.13E2,5.8E2,5.08E2,3.08E2,1.035E3,1E0,1.89E2],"tree_param":{"num_deleted":"0","num_feature":"9","num_nodes":"103","size_leaf_vector":"1"}},{"base_weights":[1.7556584E-1,4.185807E2,-7.511135E1,7.5564374E2,-8.46522E1,2.2616943E1,-2.171448E2,1.4077587E3,6.110567E2,-4.4771976E1,-1.2250109E2,2.2152383E2,-3.852995E1,-1.8042516E2,-2.2978888E2,2.3237417E3,1.1784316E3,8.9201263E2,4.7446478E2,-9.871547E1,-3.578231E1,-1.0792683E2,-1.3593306E2,5.303265E2,1.6652399E2,1.0735917E2,-6.754796E1,-1.5366872E2,-1.8911078E0,-2.1135626E0,-2.3691792E0,2.3915173E1,3.8245323E0,1.2250223E3,5.6088116E2,9.660907E2,6.66692E2,5.8033514E2,4.0059415E2,1.0556076E1,-1.147027E2,-1.4120777E1,-6.0859253E1,-6.451607E1,-1.2183477E2,-1.3929306E2,-8.997556E1,5.890808E2,4.2521704E2,2.5077422E2,1.1187456E2,2.0461276E2,4.271087E1,-2.0525385E1,-1.0559858E2,-1.5484511E0,-8.364352E-1,1.253598E1,4.6565566E0,7.3148456E0,2.7810159E0,1.0174807E1,5.6981945E0,2.9048665E0,7.808536E0,6.17058E0,4.187509E0,1.8074685E-1,4.107595E0,7.469332E-1,-5.7099855E-1,-1.271921E0,-4.7709507E-1,-6.532612E-1,6.677746E-2,2.161996E-1,-6.7989904E-1,-2.1472211E-1,-7.3987705E-1,-1.2445592E0,-5.2908146E-1,-1.3072861E0,-1.784556E0,-1.1936843E0,-8.695915E-2,6.8241496E0,5.1852098E0,2.160039E0,4.76079E0,2.9383352E0,1.9700582E0,1.4103358E0,6.8701196E-1,2.4350286E0,1.5544273E0,6.373841E-1,1.8455337E-1,8.864062E-3,-4.492563E-1,-8.465593E-1,-1.2049534E0],"categories":[4,9,4,9,0,1,2,3,4,5,7,8,9,10,11,0,2,5,0,1,2,3,4,5,7,8,9,10,11,0,1,2,3,5,7,8,10,11,0,1,5,6,3],"categories_nodes":[1,2,3,10,11,12,17,43],"categories_segments":[0,2,4,15,18,29,38,42],"categories_sizes":[2,2,11,3,11,9,4,1],"default_left":[0,1,1,1,0,0,0,0,0,1,1,1,1,0,0,0,0,1,0,0,0,0,1,0,0,0,0,0,0,0,0,0,0,0,0,0,0,1,0,0,0,0,0,0,0,1,0,0,0,0,0,0,0,0,0,0,0,0,0,0,0,0,0,0,0,0,0,0,0,0,0,0,0,0,0,0,0,0,0,0,0,0,0,0,0,0,0,0,0,0,0,0,0,0,0,0,0,0,0,0,0],"id":12,"left_children":[1,3,5,7,9,11,13,15,17,19,21,23,25,27,29,31,33,35,37,39,41,43,45,47,49,51,53,55,-1,-1,-1,-1,-1,57,59,61,63,65,67,69,71,73,75,77,79,81,83,85,87,89,91,93,95,97,99,-1,-1,-1,-1,-1,-1,-1,-1,-1,-1,-1,-1,-1,-1,-1,-1,-1,-1,-1,-1,-1,-1,-1,-1,-1,-1,-1,-1,-1,-1,-1,-1,-1,-1,-1,-1,-1,-1,-1,-1,-1,-1,-1,-1,-1,-1],"loss_changes":[2.389937E8,1.9631573E8,8.925774E7,6.4480896E7,6.9639675E5,4.634781E7,1.175424E6,2.3519104E7,2.1412896E7,1.07032625E5,3.192E4,1.5129432E7,1.2347648E7,1.2804E5,2.0564E5,2.243072E6,2.247664E6,2.443808E6,2.778496E6,5.7113188E4,1.06152016E5,6.39865E4,5.997E3,5.83224E5,3.480366E6,3.0343035E6,4.349259E6,1.13475E3,0E0,0E0,0E0,0E0,0E0,1.456E6,2.307615E5,2.210136E6,1.877632E6,6.67284E5,8.8692E5,2.5961303E4,1.7359469E4,1.1439075E5,5.498978E4,1.1049891E4,9.494625E3,1.356525E4,2.5241453E4,1.99348E5,4.50497E5,6.34366E5,5.74437E5,3.312095E5,1.4775369E5,5.689911E5,4.09097E5,0E0,0E0,0E0,0E0,0E0,0E0,0E0,0E0,0E0,0E0,0E0,0E0,0E0,0E0,0E0,0E0,0E0,0E0,0E0,0E0,0E0,0E0,0E0,0E0,0E0,0E0,0E0,0E0,0E0,0E0,0E0,0E0,0E0,0E0,0E0,0E0,0E0,0E0,0E0,0E0,0E0,0E0,0E0,0E0,0E0,0E0],"parents":[2147483647,0,0,1,1,2,2,3,3,4,4,5,5,6,6,7,7,8,8,9,9,10,10,11,11,12,12,13,13,14,14,15,15,16,16,17,17,18,18,19,19,20,20,21,21,22,22,23,23,24,24,25,25,26,26,27,27,33,33,34,34,35,35,36,36,37,37,38,38,39,39,40,40,41,41,42,42,43,43,44,44,45,45,46,46,47,47,48,48,49,49,50,50,51,51,52,52,53,53,54,54],"right_children":[2,4,6,8,10,12,14,16,18,20,22,24,26,28,30,32,34,36,38,40,42,44,46,48,50,52,54,56,-1,-1,-1,-1,-1,58,60,62,64,66,68,70,72,74,76,78,80,82,84,86,88,90,92,94,96,98,100,-1,-1,-1,-1,-1,-1,-1,-1,-1,-1,-1,-1,-1,-1,-1,-1,-1,-1,-1,-1,-1,-1,-1,-1,-1,-1,-1,-1,-1,-1,-1,-1,-1,-1,-1,-1,-1,-1,-1,-1,-1,-1,-1,-1,-1,-1],"split_conditions":[1.213E1,NaN,NaN,NaN,8.35E0,2.161E1,2.113E1,6.76E0,7.48E0,1.468E1,NaN,NaN,NaN,1.451E1,2.931E1,1.8E1,1.468948E4,NaN,9.37E0,5.46E0,6.98E0,9.18E0,1.1431E2,1.731E1,1.583E1,3.338E1,3.442E1,1.875534E4,-1.8911078E0,-2.1135626E0,-2.3691792E0,2.3915173E1,3.8245323E0,1.163E1,3.825E1,2.1E1,2.64217E3,9.234E1,1E0,3.043E1,2.965E1,3.4E0,1.912E1,NaN,1.103E1,9.418E1,7.1E0,1.623E1,5E0,1.431E1,1.94E1,2.758E1,4.267E1,2.842E1,4.107E1,-1.5484511E0,-8.364352E-1,1.253598E1,4.6565566E0,7.3148456E0,2.7810159E0,1.0174807E1,5.6981945E0,2.9048665E0,7.808536E0,6.17058E0,4.187509E0,1.8074685E-1,4.107595E0,7.469332E-1,-5.7099855E-1,-1.271921E0,-4.7709507E-1,-6.532612E-1,6.677746E-2,2.161996E-1,-6.7989904E-1,-2.1472211E-1,-7.3987705E-1,-1.2445592E0,-5.2908146E-1,-1.3072861E0,-1.784556E0,-1.1936843E0,-8.695915E-2,6.8241496E0,5.1852098E0,2.160039E0,4.76079E0,2.9383352E0,1.9700582E0,1.4103358E0,6.8701196E-1,2.4350286E0,1.5544273E0,6.373841E-1,1.8455337E-1,8.864062E-3,-4.492563E-1,-8.465593E-1,-1.2049534E0],"split_indices":[5,0,0,0,5,5,5,5,5,8,3,0,0,5,5,1,2,4,5,5,5,5,8,6,5,5,5,2,0,0,0,0,0,7,8,1,2,8,1,6,6,7,8,3,7,8,7,5,1,5,5,5,5,5,5,0,0,0,0,0,0,0,0,0,0,0,0,0,0,0,0,0,0,0,0,0,0,0,0,0,0,0,0,0,0,0,0,0,0,0,0,0,0,0,0,0,0,0,0,0,0],"split_type":[0,1,1,1,0,0,0,0,0,0,1,1,1,0,0,0,0,1,0,0,0,0,0,0,0,0,0,0,0,0,0,0,0,0,0,0,0,0,0,0,0,0,0,1,0,0,0,0,0,0,0,0,0,0,0,0,0,0,0,0,0,0,0,0,0,0,0,0,0,0,0,0,0,0,0,0,0,0,0,0,0,0,0,0,0,0,0,0,0,0,0,0,0,0,0,0,0,0,0,0,0],"sum_hessian":[7.585E3,1.156E3,6.429E3,6.92E2,4.64E2,3.809E3,2.62E3,1.24E2,5.68E2,2.27E2,2.37E2,8.95E2,2.914E3,6.75E2,1.945E3,2.3E1,1.01E2,1.84E2,3.84E2,3.1E1,1.96E2,1.18E2,1.19E2,1.34E2,7.61E2,4.83E2,2.431E3,1.7E2,5.05E2,5.51E2,1.394E3,2.2E1,1E0,9.3E1,8E0,1.36E2,4.8E1,1.55E2,2.29E2,4E0,2.7E1,1.06E2,9E1,3E1,8.8E1,1.09E2,1E1,8.3E1,5.1E1,2.98E2,4.63E2,1.92E2,2.91E2,1.088E3,1.343E3,1.66E2,4E0,8.9E1,4E0,4E0,4E0,1.19E2,1.7E1,1.2E1,3.6E1,1.24E2,3.1E1,6E0,2.23E2,2E0,2E0,2.2E1,5E0,3E1,7.6E1,7E0,8.3E1,6E0,2.4E1,8.4E1,4E0,9.3E1,1.6E1,7E0,3E0,3.2E1,5.1E1,1.1E1,4E1,1.63E2,1.35E2,2.75E2,1.88E2,1.05E2,8.7E1,1.55E2,1.36E2,5.8E2,5.08E2,5.61E2,7.82E2],"tree_param":{"num_deleted":"0","num_feature":"9","num_nodes":"101","size_leaf_vector":"1"}},{"base_weights":[1.8778785E-1,4.1446967E2,-7.435721E1,7.482262E2,-8.3826584E1,2.2398193E1,-2.1497672E2,1.3941213E3,6.050186E2,-4.4335762E1,-1.21305916E2,2.1933754E2,-3.8143852E1,-1.7862723E2,-2.274933E2,2.3016604E3,1.1669149E3,8.832362E2,4.6975815E2,-1.00168434E2,-3.569598E1,-1.0687048E2,-1.3461018E2,5.2516345E2,1.6486795E2,1.0629552E2,-6.6873505E1,-1.5214597E2,-1.872234E0,-2.0924654E0,-2.3455045E0,2.368642E1,3.8054097E0,1.3332183E3,9.598273E2,8.329302E2,1.2566147E3,5.7459814E2,3.9660687E2,-8.320297E0,-1.2278379E2,-8.0201235E0,-5.3470333E1,-6.390171E1,-1.20636345E2,-1.0362586E2,-1.4013588E2,5.8431415E2,4.2262247E2,2.482829E2,1.1076033E2,2.0644258E2,4.4722916E1,-2.0320532E1,-1.0454412E2,-1.5330592E0,-8.297438E-1,7.33218E0,1.3929428E1,1.2146642E1,7.4219275E0,1.031805E1,7.5944476E0,6.468506E0,1.4167461E1,6.0219054E0,3.6854286E0,4.4822035E0,3.1133897E0,4.6959496E-1,-6.1520016E-1,-6.668999E-1,-1.4666257E0,2.4439377E-1,-6.801562E-1,1.1070398E-1,-5.875548E-1,-2.1288164E-1,-7.327743E-1,-1.2629579E0,-8.129674E-1,-1.2058502E0,-5.8874214E-1,-1.4421484E0,-9.4393677E-1,5.962813E0,6.6429114E-1,4.830263E0,2.8910894E0,3.1075096E0,2.1133363E0,1.3962834E0,6.801781E-1,2.410908E0,1.5733935E0,8.3605266E-1,2.8524923E-1,8.775713E-3,-4.4477263E-1,-7.2324765E-1,-1.1405303E0],"categories":[4,9,4,9,0,1,2,3,4,5,7,8,9,10,11,0,2,5,0,1,2,3,4,5,7,8,9,10,11,0,1,2,3,5,7,8,10,11,2,3,4,1,3,5,0,1,0,1,2,5,0,1,3,3],"categories_nodes":[1,2,3,10,11,12,16,35,37,39,40,43],"categories_segments":[0,2,4,15,18,29,38,41,44,46,50,53],"categories_sizes":[2,2,11,3,11,9,3,3,2,4,3,1],"default_left":[0,1,1,1,0,0,0,0,0,0,1,1,1,0,0,0,1,0,0,0,0,0,0,0,0,0,0,0,0,0,0,0,0,0,0,0,0,0,0,0,1,0,0,0,0,0,0,1,0,0,0,0,0,0,0,0,0,0,0,0,0,0,0,0,0,0,0,0,0,0,0,0,0,0,0,0,0,0,0,0,0,0,0,0,0,0,0,0,0,0,0,0,0,0,0,0,0,0,0,0,0],"id":13,"left_children":[1,3,5,7,9,11,13,15,17,19,21,23,25,27,29,31,33,35,37,39,41,43,45,47,49,51,53,55,-1,-1,-1,-1,-1,57,59,61,63,65,67,69,71,73,75,77,79,81,83,85,87,89,91,93,95,97,99,-1,-1,-1,-1,-1,-1,-1,-1,-1,-1,-1,-1,-1,-1,-1,-1,-1,-1,-1,-1,-1,-1,-1,-1,-1,-1,-1,-1,-1,-1,-1,-1,-1,-1,-1,-1,-1,-1,-1,-1,-1,-1,-1,-1,-1,-1],"loss_changes":[2.3430651E8,1.9248298E8,8.748945E7,6.3257024E7,6.828635E5,4.543542E7,1.151832E6,2.3088992E7,2.0997616E7,1.064075E5,3.132275E4,1.4839172E7,1.2103462E7,1.25396E5,2.01512E5,2.186952E6,2.233152E6,2.428224E6,2.724744E6,6.129375E4,9.7463375E4,6.2679875E4,6.0235E3,5.7188E5,3.411698E6,2.975264E6,4.262823E6,9.9975E2,0E0,0E0,0E0,0E0,0E0,9.13752E5,1.816088E6,1.642384E6,1.036424E6,6.65012E5,8.72676E5,2.3475035E4,2.2365906E4,1.5550875E5,4.1924438E4,1.0825578E4,9.5475E3,9.597578E3,4.85875E3,4.74792E5,2.87783E5,6.24466E5,5.630285E5,2.751135E5,1.8718981E5,5.576908E5,4.03515E5,0E0,0E0,0E0,0E0,0E0,0E0,0E0,0E0,0E0,0E0,0E0,0E0,0E0,0E0,0E0,0E0,0E0,0E0,0E0,0E0,0E0,0E0,0E0,0E0,0E0,0E0,0E0,0E0,0E0,0E0,0E0,0E0,0E0,0E0,0E0,0E0,0E0,0E0,0E0,0E0,0E0,0E0,0E0,0E0,0E0,0E0],"parents":[2147483647,0,0,1,1,2,2,3,3,4,4,5,5,6,6,7,7,8,8,9,9,10,10,11,11,12,12,13,13,14,14,15,15,16,16,17,17,18,18,19,19,20,20,21,21,22,22,23,23,24,24,25,25,26,26,27,27,33,33,34,34,35,35,36,36,37,37,38,38,39,39,40,40,41,41,42,42,43,43,44,44,45,45,46,46,47,47,48,48,49,49,50,50,51,51,52,52,53,53,54,54],"right_children":[2,4,6,8,10,12,14,16,18,20,22,24,26,28,30,32,34,36,38,40,42,44,46,48,50,52,54,56,-1,-1,-1,-1,-1,58,60,62,64,66,68,70,72,74,76,78,80,82,84,86,88,90,92,94,96,98,100,-1,-1,-1,-1,-1,-1,-1,-1,-1,-1,-1,-1,-1,-1,-1,-1,-1,-1,-1,-1,-1,-1,-1,-1,-1,-1,-1,-1,-1,-1,-1,-1,-1,-1,-1,-1,-1,-1,-1,-1,-1,-1,-1,-1,-1,-1],"split_conditions":[1.213E1,NaN,NaN,NaN,8.35E0,2.161E1,2.113E1,6.76E0,7.48E0,2.24648E3,NaN,NaN,NaN,1.451E1,2.931E1,1.8E1,NaN,1.019E1,9.37E0,7.4401E2,6.43E0,9.18E0,1.97E0,1.803E1,1.583E1,3.285E1,3.442E1,1.875534E4,-1.872234E0,-2.0924654E0,-2.3455045E0,2.368642E1,3.8054097E0,7.33E0,9.02E0,NaN,-1.43E0,NaN,1.107E1,NaN,NaN,9.55959E3,-1.542E1,NaN,1.0461E2,1.5E0,1.1291E2,1.1624E2,1.755E1,1.375E1,1.94E1,2.758E1,3.837E1,2.842E1,3.803E1,-1.5330592E0,-8.297438E-1,7.33218E0,1.3929428E1,1.2146642E1,7.4219275E0,1.031805E1,7.5944476E0,6.468506E0,1.4167461E1,6.0219054E0,3.6854286E0,4.4822035E0,3.1133897E0,4.6959496E-1,-6.1520016E-1,-6.668999E-1,-1.4666257E0,2.4439377E-1,-6.801562E-1,1.1070398E-1,-5.875548E-1,-2.1288164E-1,-7.327743E-1,-1.2629579E0,-8.129674E-1,-1.2058502E0,-5.8874214E-1,-1.4421484E0,-9.4393677E-1,5.962813E0,6.6429114E-1,4.830263E0,2.8910894E0,3.1075096E0,2.1133363E0,1.3962834E0,6.801781E-1,2.410908E0,1.5733935E0,8.3605266E-1,2.8524923E-1,8.775713E-3,-4.4477263E-1,-7.2324765E-1,-1.1405303E0],"split_indices":[5,0,0,0,5,5,5,5,5,2,3,0,0,5,5,1,3,7,5,2,5,5,7,5,5,5,5,2,0,0,0,0,0,5,5,3,6,3,5,3,3,2,6,3,8,7,8,8,6,5,5,5,5,5,5,0,0,0,0,0,0,0,0,0,0,0,0,0,0,0,0,0,0,0,0,0,0,0,0,0,0,0,0,0,0,0,0,0,0,0,0,0,0,0,0,0,0,0,0,0,0],"split_type":[0,1,1,1,0,0,0,0,0,0,1,1,1,0,0,0,1,0,0,0,0,0,0,0,0,0,0,0,0,0,0,0,0,0,0,1,0,1,0,1,1,0,0,1,0,0,0,0,0,0,0,0,0,0,0,0,0,0,0,0,0,0,0,0,0,0,0,0,0,0,0,0,0,0,0,0,0,0,0,0,0,0,0,0,0,0,0,0,0,0,0,0,0,0,0,0,0,0,0,0,0],"sum_hessian":[7.585E3,1.156E3,6.429E3,6.92E2,4.64E2,3.809E3,2.62E3,1.24E2,5.68E2,2.27E2,2.37E2,8.95E2,2.914E3,6.75E2,1.945E3,2.3E1,1.01E2,1.84E2,3.84E2,2.9E1,1.98E2,1.18E2,1.19E2,1.34E2,7.61E2,4.83E2,2.431E3,1.7E2,5.05E2,5.51E2,1.394E3,2.2E1,1E0,5.3E1,4.8E1,1.65E2,1.9E1,1.55E2,2.29E2,6E0,2.3E1,7.8E1,1.2E2,3E1,8.8E1,2.1E1,9.8E1,8.2E1,5.2E1,2.98E2,4.63E2,1.83E2,3E2,1.088E3,1.343E3,1.66E2,4E0,6E0,4.7E1,2E1,2.8E1,4.1E1,1.24E2,5E0,1.4E1,1.35E2,2E1,1.4E2,8.9E1,3E0,3E0,8E0,1.5E1,5.1E1,2.7E1,9E0,1.11E2,6E0,2.4E1,7.5E1,1.3E1,1.4E1,7E0,8.8E1,1E1,8E1,2E0,3.4E1,1.8E1,1.08E2,1.9E2,2.75E2,1.88E2,1.05E2,7.8E1,8.7E1,2.13E2,5.8E2,5.08E2,3.08E2,1.035E3],"tree_param":{"num_deleted":"0","num_feature":"9","num_nodes":"101","size_leaf_vector":"1"}},{"base_weights":[2.0298265E-1,4.104233E2,-7.361119E1,7.409231E2,-8.301067E1,2.2180626E1,-2.1283026E2,1.3807267E3,5.990666E2,-4.3906403E1,-1.2012312E2,2.1716832E2,-3.7761456E1,-1.816261E2,-2.2713892E2,2.279789E3,1.155646E3,8.7461224E2,4.651055E2,-9.723558E1,-3.502092E1,-1.0582716E2,-1.3329892E2,5.2001807E2,1.6322885E2,1.0524311E2,-6.620572E1,-1.5063834E2,-1.8939133E2,-2.1126611E0,-2.3302934E0,2.3459852E1,3.7863827E0,1.3202798E3,9.5062836E2,9.478955E2,6.51869E2,5.689144E2,3.926738E2,1.0475088E1,-1.1299693E2,3.5640835E1,-4.232568E1,-6.3293186E1,-1.1945329E2,-1.3509535E2,-6.4961876E1,5.7788605E2,4.165387E2,2.4581752E2,1.096572E2,2.006008E2,4.185517E1,-2.0117739E1,-1.0350007E2,-1.5178206E0,-8.231058E-1,-1.7648283E2,-1.9576572E0,8.813322E0,1.4120725E1,1.2030959E1,7.350267E0,9.987137E0,5.564462E0,2.8007982E0,7.6487956E0,6.052434E0,4.0922565E0,1.4468946E-1,4.0273967E0,7.403243E-1,-5.6573945E-1,7.888656E-2,-1.1776634E0,9.150891E-1,-1.3309482E-1,-5.333242E-1,2.8769674E-2,-2.1105686E-1,-7.257396E-1,-1.2504944E0,-8.0541855E-1,-7.2503966E-1,-1.3726159E0,-8.2251735E-2,-7.708975E-1,6.700155E0,5.0830607E0,2.1053536E0,4.6667285E0,2.8815796E0,1.9295243E0,1.3823713E0,6.734124E-1,2.3870263E0,1.5242587E0,6.2546283E-1,1.7988978E-1,8.687974E-3,-4.4033372E-1,-8.290107E-1,-1.1815286E0,-5.135368E-1,-1.7680783E0],"categories":[4,9,4,9,0,1,2,3,4,5,7,8,9,10,11,0,2,5,0,1,2,3,4,5,7,8,9,10,11,0,1,2,3,5,7,8,10,11,2,3,4,0,1,5,6,2,3,6,3],"categories_nodes":[1,2,3,10,11,12,16,17,40,43],"categories_segments":[0,2,4,15,18,29,38,41,45,48],"categories_sizes":[2,2,11,3,11,9,3,4,3,1],"default_left":[0,1,1,1,0,0,0,0,0,1,1,1,1,0,0,0,1,1,0,0,0,0,0,0,0,0,0,0,0,0,0,0,0,0,0,0,0,1,0,0,1,0,0,0,0,0,0,0,0,0,0,0,0,0,0,0,0,0,0,0,0,0,0,0,0,0,0,0,0,0,0,0,0,0,0,0,0,0,0,0,0,0,0,0,0,0,0,0,0,0,0,0,0,0,0,0,0,0,0,0,0,0,0,0,0],"id":14,"left_children":[1,3,5,7,9,11,13,15,17,19,21,23,25,27,29,31,33,35,37,39,41,43,45,47,49,51,53,55,57,-1,-1,-1,-1,59,61,63,65,67,69,71,73,75,77,79,81,83,85,87,89,91,93,95,97,99,101,-1,-1,103,-1,-1,-1,-1,-1,-1,-1,-1,-1,-1,-1,-1,-1,-1,-1,-1,-1,-1,-1,-1,-1,-1,-1,-1,-1,-1,-1,-1,-1,-1,-1,-1,-1,-1,-1,-1,-1,-1,-1,-1,-1,-1,-1,-1,-1,-1,-1],"loss_changes":[2.2973485E8,1.8874488E8,8.575551E7,6.206976E7,6.695595E5,4.453936E7,1.129E6,2.2660576E7,2.0596352E7,1.0463384E5,3.072325E4,1.4551776E7,1.1864196E7,1.70948E5,1.18408E5,2.132096E6,2.18768E6,2.40192E6,2.67144E6,5.5508906E4,1.031935E5,6.140875E4,5.9555E3,5.67688E5,3.344446E6,2.917155E6,4.178091E6,8.7E2,1.9676E4,0E0,0E0,0E0,0E0,9.3128E5,1.78288E6,2.169576E6,1.844562E6,6.57324E5,8.69776E5,2.5495602E4,1.7072531E4,5.317837E4,8.921191E4,1.0605797E4,9.3085E3,5.77625E3,2.8064043E3,1.97896E5,4.38795E5,6.13658E5,5.51847E5,3.178775E5,1.4306975E5,5.466144E5,3.95868E5,0E0,0E0,1.925E2,0E0,0E0,0E0,0E0,0E0,0E0,0E0,0E0,0E0,0E0,0E0,0E0,0E0,0E0,0E0,0E0,0E0,0E0,0E0,0E0,0E0,0E0,0E0,0E0,0E0,0E0,0E0,0E0,0E0,0E0,0E0,0E0,0E0,0E0,0E0,0E0,0E0,0E0,0E0,0E0,0E0,0E0,0E0,0E0,0E0,0E0,0E0],"parents":[2147483647,0,0,1,1,2,2,3,3,4,4,5,5,6,6,7,7,8,8,9,9,10,10,11,11,12,12,13,13,14,14,15,15,16,16,17,17,18,18,19,19,20,20,21,21,22,22,23,23,24,24,25,25,26,26,27,27,28,28,33,33,34,34,35,35,36,36,37,37,38,38,39,39,40,40,41,41,42,42,43,43,44,44,45,45,46,46,47,47,48,48,49,49,50,50,51,51,52,52,53,53,54,54,57,57],"right_children":[2,4,6,8,10,12,14,16,18,20,22,24,26,28,30,32,34,36,38,40,42,44,46,48,50,52,54,56,58,-1,-1,-1,-1,60,62,64,66,68,70,72,74,76,78,80,82,84,86,88,90,92,94,96,98,100,102,-1,-1,104,-1,-1,-1,-1,-1,-1,-1,-1,-1,-1,-1,-1,-1,-1,-1,-1,-1,-1,-1,-1,-1,-1,-1,-1,-1,-1,-1,-1,-1,-1,-1,-1,-1,-1,-1,-1,-1,-1,-1,-1,-1,-1,-1,-1,-1,-1,-1],"split_conditions":[1.213E1,NaN,NaN,NaN,8.35E0,2.161E1,2.319E1,6.76E0,7.48E0,1.468E1,NaN,NaN,NaN,1.451E1,3.068E1,1.8E1,NaN,NaN,9.37E0,5.46E0,2.492E1,9.18E0,1.746401E4,1.731E1,1.583E1,3.338E1,3.442E1,1.875534E4,1.744E1,-2.1126611E0,-2.3302934E0,2.3459852E1,3.7863827E0,2.63E0,9.02E0,2.1E1,2.64217E3,9.234E1,1E0,3.043E1,NaN,6.76E0,2E1,NaN,1.0461E2,6.92E0,1.811961E4,1.623E1,5E0,1.431E1,1.94E1,2.758E1,4.267E1,2.842E1,4.107E1,-1.5178206E0,-8.231058E-1,-1.953E1,-1.9576572E0,8.813322E0,1.4120725E1,1.2030959E1,7.350267E0,9.987137E0,5.564462E0,2.8007982E0,7.6487956E0,6.052434E0,4.0922565E0,1.4468946E-1,4.0273967E0,7.403243E-1,-5.6573945E-1,7.888656E-2,-1.1776634E0,9.150891E-1,-1.3309482E-1,-5.333242E-1,2.8769674E-2,-2.1105686E-1,-7.257396E-1,-1.2504944E0,-8.0541855E-1,-7.2503966E-1,-1.3726159E0,-8.2251735E-2,-7.708975E-1,6.700155E0,5.0830607E0,2.1053536E0,4.6667285E0,2.8815796E0,1.9295243E0,1.3823713E0,6.734124E-1,2.3870263E0,1.5242587E0,6.2546283E-1,1.7988978E-1,8.687974E-3,-4.4033372E-1,-8.290107E-1,-1.1815286E0,-5.135368E-1,-1.7680783E0],"split_indices":[5,0,0,0,5,5,5,5,5,8,3,0,0,5,5,1,3,4,5,5,8,5,2,6,5,5,5,2,5,0,0,0,0,7,5,1,2,8,1,6,4,5,1,3,8,8,2,5,1,5,5,5,5,5,5,0,0,6,0,0,0,0,0,0,0,0,0,0,0,0,0,0,0,0,0,0,0,0,0,0,0,0,0,0,0,0,0,0,0,0,0,0,0,0,0,0,0,0,0,0,0,0,0,0,0],"split_type":[0,1,1,1,0,0,0,0,0,0,1,1,1,0,0,0,1,1,0,0,0,0,0,0,0,0,0,0,0,0,0,0,0,0,0,0,0,0,0,0,1,0,0,1,0,0,0,0,0,0,0,0,0,0,0,0,0,0,0,0,0,0,0,0,0,0,0,0,0,0,0,0,0,0,0,0,0,0,0,0,0,0,0,0,0,0,0,0,0,0,0,0,0,0,0,0,0,0,0,0,0,0,0,0,0],"sum_hessian":[7.585E3,1.156E3,6.429E3,6.92E2,4.64E2,3.809E3,2.62E3,1.24E2,5.68E2,2.27E2,2.37E2,8.95E2,2.914E3,8.28E2,1.792E3,2.3E1,1.01E2,1.84E2,3.84E2,3.1E1,1.96E2,1.18E2,1.19E2,1.34E2,7.61E2,4.83E2,2.431E3,1.7E2,6.58E2,4.95E2,1.297E3,2.2E1,1E0,5.3E1,4.8E1,1.36E2,4.8E1,1.55E2,2.29E2,4E0,2.7E1,1.8E1,1.78E2,3E1,8.8E1,1.15E2,4E0,8.3E1,5.1E1,2.98E2,4.63E2,1.92E2,2.91E2,1.088E3,1.343E3,1.66E2,4E0,2.27E2,4.31E2,1.1E1,4.2E1,2E1,2.8E1,1.19E2,1.7E1,1.2E1,3.6E1,1.24E2,3.1E1,6E0,2.23E2,2E0,2E0,1E0,2.6E1,8E0,1E1,1.43E2,3.5E1,6E0,2.4E1,7.5E1,1.3E1,5E0,1.1E2,1E0,3E0,3.2E1,5.1E1,1.1E1,4E1,1.63E2,1.35E2,2.75E2,1.88E2,1.05E2,8.7E1,1.55E2,1.36E2,5.8E2,5.08E2,5.61E2,7.82E2,1E0,2.26E2],"tree_param":{"num_deleted":"0","num_feature":"9","num_nodes":"105","size_leaf_vector":"1"}},{"base_weights":[2.1676557E-1,4.0640836E2,-7.287248E1,7.336724E2,-8.219474E1,2.1966084E1,-2.1070616E2,1.367476E3,5.931468E2,-4.3470177E1,-1.1894686E2,2.1502501E2,-3.7383064E1,-1.8430083E2,-2.2730649E2,2.2581267E3,1.1445044E3,8.6600665E2,4.6049164E2,-9.8685616E1,-3.4927795E1,-1.04794044E2,-1.3199052E2,5.149553E2,1.6160556E2,1.04200424E2,-6.554467E1,-1.6117493E2,-1.9567693E0,-2.1843402E0,-2.334628E0,2.3235457E3,3.7674508E0,1.1900946E3,5.4117316E2,8.161773E2,1.23629E3,5.632903E2,3.887652E2,-7.7658887E0,-1.2109197E2,-7.6293025E0,-5.246212E1,-6.269047E1,-1.1828187E2,-1.01503746E2,-1.3743211E2,5.732204E2,4.13994E2,2.4337541E2,1.0856506E2,2.0239148E2,4.383047E1,-1.991696E1,-1.0246657E2,-1.4759573E0,-1.7106647E2,6.823179E0,2.3671322E1,1.2183077E1,4.4423985E0,7.1193376E0,2.6217792E0,1.0130827E1,7.4348764E0,6.3313756E0,1.3951317E1,5.905797E0,3.5973547E0,4.3988123E0,3.043638E0,4.6907225E-1,-6.049753E-1,-6.561956E-1,-1.4472696E0,2.4413149E-1,-6.6864234E-1,1.124209E-1,-5.7681584E-1,-3.965443E-1,-8.180835E-1,-1.2085794E0,-5.0832146E-1,-1.1826174E0,-5.739453E-1,-1.4146758E0,-9.228771E-1,5.850136E0,6.372891E-1,4.55005E0,2.3595603E0,3.0481682E0,2.0703778E0,1.3685975E0,6.66714E-1,2.3633811E0,1.5428091E0,8.206843E-1,2.7901632E-1,8.601149E-3,-4.35939E-1,-7.077754E-1,-1.118193E0,-4.4625527E-1,-1.7149707E0],"categories":[4,9,4,9,0,1,2,3,4,5,7,8,9,10,11,0,2,5,0,1,2,3,4,5,7,8,9,10,11,0,1,2,3,5,7,8,10,11,1,3,5,0,1,0,1,2,5,0,1,3],"categories_nodes":[1,2,3,10,11,12,35,37,39,40],"categories_segments":[0,2,4,15,18,29,38,41,43,47],"categories_sizes":[2,2,11,3,11,9,3,2,4,3],"default_left":[0,1,1,1,0,0,0,0,0,0,1,1,1,0,0,0,0,0,0,0,0,0,0,0,0,0,0,0,0,0,0,0,0,0,0,0,0,0,0,0,1,0,0,0,0,0,0,1,0,0,0,0,0,0,0,0,0,0,0,0,0,0,0,0,0,0,0,0,0,0,0,0,0,0,0,0,0,0,0,0,0,0,0,0,0,0,0,0,0,0,0,0,0,0,0,0,0,0,0,0,0,0,0,0,0],"id":15,"left_children":[1,3,5,7,9,11,13,15,17,19,21,23,25,27,29,31,33,35,37,39,41,43,45,47,49,51,53,55,-1,-1,-1,57,-1,59,61,63,65,67,69,71,73,75,77,79,81,83,85,87,89,91,93,95,97,99,101,-1,103,-1,-1,-1,-1,-1,-1,-1,-1,-1,-1,-1,-1,-1,-1,-1,-1,-1,-1,-1,-1,-1,-1,-1,-1,-1,-1,-1,-1,-1,-1,-1,-1,-1,-1,-1,-1,-1,-1,-1,-1,-1,-1,-1,-1,-1,-1,-1,-1],"loss_changes":[2.252446E8,1.8506722E8,8.405726E7,6.091136E7,6.56622E5,4.366257E7,1.106992E6,2.223928E7,2.019688E7,1.0409416E5,3.010425E4,1.4272592E7,1.1629571E7,2.36016E5,3.6664E4,2.07848E6,2.161568E6,2.404384E6,2.619768E6,6.0175E4,9.48532E4,6.0163125E4,5.957875E3,5.56832E5,3.278458E6,2.860179E6,4.095055E6,2.0554E4,0E0,0E0,0E0,3.0192E4,0E0,1.436808E6,2.42119E5,1.622752E6,1.032802E6,6.54108E5,8.584E5,2.3018793E4,2.1969219E4,1.5157692E5,4.0881188E4,1.0408352E4,9.320875E3,9.474422E3,4.979875E3,4.61428E5,2.79619E5,6.0445E5,5.40887E5,2.640445E5,1.8104519E5,5.3575756E5,3.90421E5,0E0,2.7465E3,0E0,0E0,0E0,0E0,0E0,0E0,0E0,0E0,0E0,0E0,0E0,0E0,0E0,0E0,0E0,0E0,0E0,0E0,0E0,0E0,0E0,0E0,0E0,0E0,0E0,0E0,0E0,0E0,0E0,0E0,0E0,0E0,0E0,0E0,0E0,0E0,0E0,0E0,0E0,0E0,0E0,0E0,0E0,0E0,0E0,0E0,0E0,0E0],"parents":[2147483647,0,0,1,1,2,2,3,3,4,4,5,5,6,6,7,7,8,8,9,9,10,10,11,11,12,12,13,13,14,14,15,15,16,16,17,17,18,18,19,19,20,20,21,21,22,22,23,23,24,24,25,25,26,26,27,27,31,31,33,33,34,34,35,35,36,36,37,37,38,38,39,39,40,40,41,41,42,42,43,43,44,44,45,45,46,46,47,47,48,48,49,49,50,50,51,51,52,52,53,53,54,54,56,56],"right_children":[2,4,6,8,10,12,14,16,18,20,22,24,26,28,30,32,34,36,38,40,42,44,46,48,50,52,54,56,-1,-1,-1,58,-1,60,62,64,66,68,70,72,74,76,78,80,82,84,86,88,90,92,94,96,98,100,102,-1,104,-1,-1,-1,-1,-1,-1,-1,-1,-1,-1,-1,-1,-1,-1,-1,-1,-1,-1,-1,-1,-1,-1,-1,-1,-1,-1,-1,-1,-1,-1,-1,-1,-1,-1,-1,-1,-1,-1,-1,-1,-1,-1,-1,-1,-1,-1,-1,-1],"split_conditions":[1.213E1,NaN,NaN,NaN,8.35E0,2.161E1,2.611E1,6.76E0,7.48E0,2.24648E3,NaN,NaN,NaN,1.668E1,3.623E1,1.8E1,1.468948E4,1.019E1,9.37E0,7.4401E2,6.43E0,9.18E0,1.97E0,1.803E1,1.583E1,3.285E1,3.442E1,1.417E1,-1.9567693E0,-2.1843402E0,-2.334628E0,-1.202E1,3.7674508E0,1.163E1,3.825E1,NaN,-1.43E0,NaN,1.107E1,NaN,NaN,9.55959E3,-1.542E1,1.238E1,1.103E1,1.5E0,1.1291E2,1.1624E2,2.72E1,1.375E1,1.94E1,2.758E1,3.837E1,2.842E1,3.803E1,-1.4759573E0,9.4E-1,6.823179E0,2.3671322E1,1.2183077E1,4.4423985E0,7.1193376E0,2.6217792E0,1.0130827E1,7.4348764E0,6.3313756E0,1.3951317E1,5.905797E0,3.5973547E0,4.3988123E0,3.043638E0,4.6907225E-1,-6.049753E-1,-6.561956E-1,-1.4472696E0,2.4413149E-1,-6.6864234E-1,1.124209E-1,-5.7681584E-1,-3.965443E-1,-8.180835E-1,-1.2085794E0,-5.0832146E-1,-1.1826174E0,-5.739453E-1,-1.4146758E0,-9.228771E-1,5.850136E0,6.372891E-1,4.55005E0,2.3595603E0,3.0481682E0,2.0703778E0,1.3685975E0,6.66714E-1,2.3633811E0,1.5428091E0,8.206843E-1,2.7901632E-1,8.601149E-3,-4.35939E-1,-7.077754E-1,-1.118193E0,-4.4625527E-1,-1.7149707E0],"split_indices":[5,0,0,0,5,5,5,5,5,2,3,0,0,5,5,1,2,7,5,2,5,5,7,5,5,5,5,5,0,0,0,6,0,7,8,3,6,3,5,3,3,2,6,6,7,7,8,8,6,5,5,5,5,5,5,0,8,0,0,0,0,0,0,0,0,0,0,0,0,0,0,0,0,0,0,0,0,0,0,0,0,0,0,0,0,0,0,0,0,0,0,0,0,0,0,0,0,0,0,0,0,0,0,0,0],"split_type":[0,1,1,1,0,0,0,0,0,0,1,1,1,0,0,0,0,0,0,0,0,0,0,0,0,0,0,0,0,0,0,0,0,0,0,1,0,1,0,1,1,0,0,0,0,0,0,0,0,0,0,0,0,0,0,0,0,0,0,0,0,0,0,0,0,0,0,0,0,0,0,0,0,0,0,0,0,0,0,0,0,0,0,0,0,0,0,0,0,0,0,0,0,0,0,0,0,0,0,0,0,0,0,0,0],"sum_hessian":[7.585E3,1.156E3,6.429E3,6.92E2,4.64E2,3.809E3,2.62E3,1.24E2,5.68E2,2.27E2,2.37E2,8.95E2,2.914E3,1.016E3,1.604E3,2.3E1,1.01E2,1.84E2,3.84E2,2.9E1,1.98E2,1.18E2,1.19E2,1.34E2,7.61E2,4.83E2,2.431E3,3.4E2,6.76E2,6.72E2,9.32E2,2.2E1,1E0,9.3E1,8E0,1.65E2,1.9E1,1.55E2,2.29E2,6E0,2.3E1,7.8E1,1.2E2,3E1,8.8E1,2.1E1,9.8E1,8.2E1,5.2E1,2.98E2,4.63E2,1.83E2,3E2,1.088E3,1.343E3,1.5E2,1.9E2,1E0,2.1E1,8.9E1,4E0,4E0,4E0,4.1E1,1.24E2,5E0,1.4E1,1.35E2,2E1,1.4E2,8.9E1,3E0,3E0,8E0,1.5E1,5.1E1,2.7E1,9E0,1.11E2,1.5E1,1.5E1,8.4E1,4E0,1.4E1,7E0,8.8E1,1E1,8E1,2E0,4.1E1,1.1E1,1.08E2,1.9E2,2.75E2,1.88E2,1.05E2,7.8E1,8.7E1,2.13E2,5.8E2,5.08E2,3.08E2,1.035E3,1E0,1.89E2],"tree_param":{"num_deleted":"0","num_feature":"9","num_nodes":"105","size_leaf_vector":"1"}},{"base_weights":[2.3021029E-1,4.0243524E2,-7.214171E1,7.2650226E2,-8.139463E1,2.175254E1,-2.0860297E2,1.3542861E3,5.873116E2,-4.30492E1,-1.1778691E2,2.128977E2,-3.700829E1,-1.7329536E2,-2.207609E2,2.236973E3,1.1333179E3,8.575512E2,4.5593073E2,-9.777341E1,-3.458299E1,-1.0377073E2,-1.3070473E2,5.0990503E2,1.599989E2,1.0316876E2,-6.489015E1,-1.4765779E2,-1.8161695E0,-2.0305219E0,-2.2760997E0,2.301636E3,3.7486136E0,1.2958308E3,9.31093E2,7.95074E2,1.1422743E3,5.577183E2,3.849099E2,-7.7076483E0,-1.199687E2,-7.5583897E0,-5.194134E1,-6.210275E1,-1.1711833E2,-1.3396153E2,-8.6254555E1,5.669777E2,4.0790482E2,2.4095879E2,1.074838E2,1.966675E2,4.101662E1,-1.9718184E1,-1.0144326E2,-1.487866E0,-8.042352E-1,6.7890625E0,2.344537E1,8.620855E0,1.3867405E1,1.1811E1,7.1794677E0,8.188175E0,1.7609274E0,6.963793E0,1.2930322E1,5.9365783E0,3.9990072E0,1.0961717E-1,3.9487743E0,4.6555412E-1,-6.0043794E-1,-6.503628E-1,-1.4337014E0,-8.515818E-1,1.6735943E-1,-9.972232E-1,-4.4239104E-1,-2.0524661E-1,-7.1260506E-1,-1.2264115E0,-7.877174E-1,-1.2550329E0,-1.728505E0,-1.1549945E0,-6.201126E-2,6.578455E0,4.9840817E0,2.0523999E0,4.5727243E0,2.8259227E0,1.8898195E0,1.3549612E0,6.600821E-1,2.3399706E0,1.4946749E0,6.1376774E-1,1.7533405E-1,8.515238E-3,-4.3158817E-1,-8.1182265E-1,-1.1585608E0],"categories":[4,9,4,9,0,1,2,3,4,5,7,8,9,10,11,0,2,5,0,1,2,3,4,5,7,8,9,10,11,0,1,2,3,5,7,8,10,11,2,3,4,0,1,2,5,0,1,3,3],"categories_nodes":[1,2,3,10,11,12,16,39,40,43],"categories_segments":[0,2,4,15,18,29,38,41,45,48],"categories_sizes":[2,2,11,3,11,9,3,4,3,1],"default_left":[0,1,1,1,0,0,0,0,0,0,1,1,1,0,0,0,1,0,0,0,0,0,1,0,0,0,0,0,0,0,0,0,0,0,0,1,0,1,0,0,1,0,1,0,0,1,0,0,0,0,0,0,0,0,0,0,0,0,0,0,0,0,0,0,0,0,0,0,0,0,0,0,0,0,0,0,0,0,0,0,0,0,0,0,0,0,0,0,0,0,0,0,0,0,0,0,0,0,0,0,0,0,0],"id":16,"left_children":[1,3,5,7,9,11,13,15,17,19,21,23,25,27,29,31,33,35,37,39,41,43,45,47,49,51,53,55,-1,-1,-1,57,-1,59,61,63,65,67,69,71,73,75,77,79,81,83,85,87,89,91,93,95,97,99,101,-1,-1,-1,-1,-1,-1,-1,-1,-1,-1,-1,-1,-1,-1,-1,-1,-1,-1,-1,-1,-1,-1,-1,-1,-1,-1,-1,-1,-1,-1,-1,-1,-1,-1,-1,-1,-1,-1,-1,-1,-1,-1,-1,-1,-1,-1,-1,-1],"loss_changes":[2.2084498E8,1.8146901E8,8.2391656E7,5.9760096E7,6.4382675E5,4.2801224E7,1.086864E6,2.1845536E7,1.9810976E7,1.0225259E5,2.952825E4,1.3995768E7,1.1399672E7,1.17406E5,1.89808E5,2.02704E6,2.145608E6,2.382704E6,2.568512E6,5.9046375E4,9.295883E4,5.8910625E4,5.816875E3,5.5462E5,3.213834E6,2.8045285E6,4.013659E6,1.01225E3,0E0,0E0,0E0,9.464E3,0E0,9.33816E5,1.763148E6,2.133832E6,1.183444E6,6.47412E5,8.5296E5,2.26748E4,2.1527688E4,1.5035875E5,4.0118812E4,1.0341023E4,9.187875E3,1.4489375E4,2.5036469E4,1.9551E5,4.26414E5,5.93622E5,5.30144E5,3.05082E5,1.385354E5,5.251165E5,3.83067E5,0E0,0E0,0E0,0E0,0E0,0E0,0E0,0E0,0E0,0E0,0E0,0E0,0E0,0E0,0E0,0E0,0E0,0E0,0E0,0E0,0E0,0E0,0E0,0E0,0E0,0E0,0E0,0E0,0E0,0E0,0E0,0E0,0E0,0E0,0E0,0E0,0E0,0E0,0E0,0E0,0E0,0E0,0E0,0E0,0E0,0E0,0E0,0E0],"parents":[2147483647,0,0,1,1,2,2,3,3,4,4,5,5,6,6,7,7,8,8,9,9,10,10,11,11,12,12,13,13,14,14,15,15,16,16,17,17,18,18,19,19,20,20,21,21,22,22,23,23,24,24,25,25,26,26,27,27,31,31,33,33,34,34,35,35,36,36,37,37,38,38,39,39,40,40,41,41,42,42,43,43,44,44,45,45,46,46,47,47,48,48,49,49,50,50,51,51,52,52,53,53,54,54],"right_children":[2,4,6,8,10,12,14,16,18,20,22,24,26,28,30,32,34,36,38,40,42,44,46,48,50,52,54,56,-1,-1,-1,58,-1,60,62,64,66,68,70,72,74,76,78,80,82,84,86,88,90,92,94,96,98,100,102,-1,-1,-1,-1,-1,-1,-1,-1,-1,-1,-1,-1,-1,-1,-1,-1,-1,-1,-1,-1,-1,-1,-1,-1,-1,-1,-1,-1,-1,-1,-1,-1,-1,-1,-1,-1,-1,-1,-1,-1,-1,-1,-1,-1,-1,-1,-1,-1],"split_conditions":[1.213E1,NaN,NaN,NaN,8.35E0,2.161E1,2.113E1,6.76E0,7.48E0,2.24648E3,NaN,NaN,NaN,1.451E1,2.931E1,1.8E1,NaN,9.27E0,9.37E0,7.4401E2,6.43E0,9.18E0,1.1431E2,1.731E1,1.583E1,3.338E1,3.442E1,1.875534E4,-1.8161695E0,-2.0305219E0,-2.2760997E0,-1.202E1,3.7486136E0,2.63E0,9.02E0,1.1229E2,1.55E0,9.234E1,1E0,NaN,NaN,1.97E0,1.468E1,NaN,1.0461E2,9.418E1,7.1E0,1.623E1,5E0,1.431E1,1.94E1,2.758E1,4.267E1,2.842E1,4.107E1,-1.487866E0,-8.042352E-1,6.7890625E0,2.344537E1,8.620855E0,1.3867405E1,1.1811E1,7.1794677E0,8.188175E0,1.7609274E0,6.963793E0,1.2930322E1,5.9365783E0,3.9990072E0,1.0961717E-1,3.9487743E0,4.6555412E-1,-6.0043794E-1,-6.503628E-1,-1.4337014E0,-8.515818E-1,1.6735943E-1,-9.972232E-1,-4.4239104E-1,-2.0524661E-1,-7.1260506E-1,-1.2264115E0,-7.877174E-1,-1.2550329E0,-1.728505E0,-1.1549945E0,-6.201126E-2,6.578455E0,4.9840817E0,2.0523999E0,4.5727243E0,2.8259227E0,1.8898195E0,1.3549612E0,6.600821E-1,2.3399706E0,1.4946749E0,6.1376774E-1,1.7533405E-1,8.515238E-3,-4.3158817E-1,-8.1182265E-1,-1.1585608E0],"split_indices":[5,0,0,0,5,5,5,5,5,2,3,0,0,5,5,1,3,7,5,2,5,5,8,6,5,5,5,2,0,0,0,6,0,7,5,8,6,8,1,3,3,7,8,3,8,8,7,5,1,5,5,5,5,5,5,0,0,0,0,0,0,0,0,0,0,0,0,0,0,0,0,0,0,0,0,0,0,0,0,0,0,0,0,0,0,0,0,0,0,0,0,0,0,0,0,0,0,0,0,0,0,0,0],"split_type":[0,1,1,1,0,0,0,0,0,0,1,1,1,0,0,0,1,0,0,0,0,0,0,0,0,0,0,0,0,0,0,0,0,0,0,0,0,0,0,1,1,0,0,1,0,0,0,0,0,0,0,0,0,0,0,0,0,0,0,0,0,0,0,0,0,0,0,0,0,0,0,0,0,0,0,0,0,0,0,0,0,0,0,0,0,0,0,0,0,0,0,0,0,0,0,0,0,0,0,0,0,0,0],"sum_hessian":[7.585E3,1.156E3,6.429E3,6.92E2,4.64E2,3.809E3,2.62E3,1.24E2,5.68E2,2.27E2,2.37E2,8.95E2,2.914E3,6.75E2,1.945E3,2.3E1,1.01E2,1.84E2,3.84E2,2.9E1,1.98E2,1.18E2,1.19E2,1.34E2,7.61E2,4.83E2,2.431E3,1.7E2,5.05E2,5.51E2,1.394E3,2.2E1,1E0,5.3E1,4.8E1,1.54E2,3E1,1.55E2,2.29E2,6E0,2.3E1,7.8E1,1.2E2,3E1,8.8E1,1.09E2,1E1,8.3E1,5.1E1,2.98E2,4.63E2,1.92E2,2.91E2,1.088E3,1.343E3,1.66E2,4E0,1E0,2.1E1,1.1E1,4.2E1,2E1,2.8E1,1.48E2,6E0,9E0,2.1E1,1.24E2,3.1E1,6E0,2.23E2,3E0,3E0,8E0,1.5E1,1.8E1,6E1,1.5E1,1.05E2,6E0,2.4E1,7.5E1,1.3E1,9.3E1,1.6E1,7E0,3E0,3.2E1,5.1E1,1.1E1,4E1,1.63E2,1.35E2,2.75E2,1.88E2,1.05E2,8.7E1,1.55E2,1.36E2,5.8E2,5.08E2,5.61E2,7.82E2],"tree_param":{"num_deleted":"0","num_feature":"9",